digraph Tree {
node [shape=box, style="filled, rounded", color="black", fontname="helvetica"] ;
edge [fontname="helvetica"] ;
0 [label="JP_Sales <= 0.005\ngini = 0.892\nsamples = 16327\nvalue = [3253, 1276, 836, 1710, 876, 571, 1226, 1471, 1282\n851, 2304, 671]\nclass = Action", fillcolor="#fdf6f2"] ;
1 [label="Year <= 2006.5\ngini = 0.884\nsamples = 10241\nvalue = [2095, 536, 373, 1179, 601, 417, 999, 432, 909, 585\n1711, 404]\nclass = Action", fillcolor="#fef9f6"] ;
0 -> 1 [labeldistance=2.5, labelangle=45, headlabel="True"] ;
2 [label="NA_Sales <= 0.005\ngini = 0.885\nsamples = 4787\nvalue = [848, 187, 248, 379, 412, 139, 604, 234, 497, 177\n871, 191]\nclass = Sports", fillcolor="#fffefe"] ;
1 -> 2 ;
3 [label="Other_Sales <= 0.16\ngini = 0.856\nsamples = 157\nvalue = [17, 7, 1, 8, 1, 2, 10, 15, 23, 20, 11, 42]\nclass = Strategy", fillcolor="#fbe3e5"] ;
2 -> 3 ;
4 [label="Global_Sales <= 0.995\ngini = 0.846\nsamples = 150\nvalue = [17, 7, 1, 2, 1, 2, 10, 14, 23, 20, 11, 42]\nclass = Strategy", fillcolor="#fbe1e3"] ;
3 -> 4 ;
5 [label="Year <= 2001.5\ngini = 0.843\nsamples = 147\nvalue = [17, 7, 1, 2, 1, 2, 10, 14, 23, 20, 8, 42]\nclass = Strategy", fillcolor="#fbe1e3"] ;
4 -> 5 ;
6 [label="Year <= 1990.0\ngini = 0.675\nsamples = 25\nvalue = [2, 1, 0, 0, 0, 0, 1, 1, 1, 5, 1, 13]\nclass = Strategy", fillcolor="#f5b0b5"] ;
5 -> 6 ;
7 [label="gini = 0.0\nsamples = 2\nvalue = [0, 0, 0, 0, 0, 0, 0, 0, 0, 2, 0, 0]\nclass = Simulation", fillcolor="#d739e5"] ;
6 -> 7 ;
8 [label="EU_Sales <= 0.015\ngini = 0.647\nsamples = 23\nvalue = [2, 1, 0, 0, 0, 0, 1, 1, 1, 3, 1, 13]\nclass = Strategy", fillcolor="#f29ca3"] ;
6 -> 8 ;
9 [label="Year <= 1999.5\ngini = 0.812\nsamples = 8\nvalue = [1, 1, 0, 0, 0, 0, 1, 1, 0, 2, 0, 2]\nclass = Simulation", fillcolor="#ffffff"] ;
8 -> 9 ;
10 [label="Global_Sales <= 0.015\ngini = 0.75\nsamples = 4\nvalue = [1, 1, 0, 0, 0, 0, 1, 0, 0, 0, 0, 1]\nclass = Action", fillcolor="#ffffff"] ;
9 -> 10 ;
11 [label="Year <= 1998.0\ngini = 0.667\nsamples = 3\nvalue = [1, 0, 0, 0, 0, 0, 1, 0, 0, 0, 0, 1]\nclass = Action", fillcolor="#ffffff"] ;
10 -> 11 ;
12 [label="gini = 0.5\nsamples = 2\nvalue = [0, 0, 0, 0, 0, 0, 1, 0, 0, 0, 0, 1]\nclass = Racing", fillcolor="#ffffff"] ;
11 -> 12 ;
13 [label="gini = 0.0\nsamples = 1\nvalue = [1, 0, 0, 0, 0, 0, 0, 0, 0, 0, 0, 0]\nclass = Action", fillcolor="#e58139"] ;
11 -> 13 ;
14 [label="gini = 0.0\nsamples = 1\nvalue = [0, 1, 0, 0, 0, 0, 0, 0, 0, 0, 0, 0]\nclass = Adventure", fillcolor="#e5d739"] ;
10 -> 14 ;
15 [label="Global_Sales <= 0.015\ngini = 0.625\nsamples = 4\nvalue = [0, 0, 0, 0, 0, 0, 0, 1, 0, 2, 0, 1]\nclass = Simulation", fillcolor="#f2bdf6"] ;
9 -> 15 ;
16 [label="Year <= 2000.5\ngini = 0.5\nsamples = 2\nvalue = [0, 0, 0, 0, 0, 0, 0, 1, 0, 1, 0, 0]\nclass = Role-Playing", fillcolor="#ffffff"] ;
15 -> 16 ;
17 [label="gini = 0.0\nsamples = 1\nvalue = [0, 0, 0, 0, 0, 0, 0, 1, 0, 0, 0, 0]\nclass = Role-Playing", fillcolor="#3947e5"] ;
16 -> 17 ;
18 [label="gini = 0.0\nsamples = 1\nvalue = [0, 0, 0, 0, 0, 0, 0, 0, 0, 1, 0, 0]\nclass = Simulation", fillcolor="#d739e5"] ;
16 -> 18 ;
19 [label="Year <= 2000.5\ngini = 0.5\nsamples = 2\nvalue = [0, 0, 0, 0, 0, 0, 0, 0, 0, 1, 0, 1]\nclass = Simulation", fillcolor="#ffffff"] ;
15 -> 19 ;
20 [label="gini = 0.0\nsamples = 1\nvalue = [0, 0, 0, 0, 0, 0, 0, 0, 0, 1, 0, 0]\nclass = Simulation", fillcolor="#d739e5"] ;
19 -> 20 ;
21 [label="gini = 0.0\nsamples = 1\nvalue = [0, 0, 0, 0, 0, 0, 0, 0, 0, 0, 0, 1]\nclass = Strategy", fillcolor="#e53947"] ;
19 -> 21 ;
22 [label="Year <= 1998.5\ngini = 0.444\nsamples = 15\nvalue = [1, 0, 0, 0, 0, 0, 0, 0, 1, 1, 1, 11]\nclass = Strategy", fillcolor="#ec727c"] ;
8 -> 22 ;
23 [label="gini = 0.0\nsamples = 5\nvalue = [0, 0, 0, 0, 0, 0, 0, 0, 0, 0, 0, 5]\nclass = Strategy", fillcolor="#e53947"] ;
22 -> 23 ;
24 [label="Year <= 2000.0\ngini = 0.6\nsamples = 10\nvalue = [1, 0, 0, 0, 0, 0, 0, 0, 1, 1, 1, 6]\nclass = Strategy", fillcolor="#f19199"] ;
22 -> 24 ;
25 [label="gini = 0.0\nsamples = 1\nvalue = [1, 0, 0, 0, 0, 0, 0, 0, 0, 0, 0, 0]\nclass = Action", fillcolor="#e58139"] ;
24 -> 25 ;
26 [label="Global_Sales <= 0.025\ngini = 0.519\nsamples = 9\nvalue = [0, 0, 0, 0, 0, 0, 0, 0, 1, 1, 1, 6]\nclass = Strategy", fillcolor="#ef838c"] ;
24 -> 26 ;
27 [label="gini = 0.5\nsamples = 2\nvalue = [0, 0, 0, 0, 0, 0, 0, 0, 1, 0, 0, 1]\nclass = Shooter", fillcolor="#ffffff"] ;
26 -> 27 ;
28 [label="Global_Sales <= 0.035\ngini = 0.449\nsamples = 7\nvalue = [0, 0, 0, 0, 0, 0, 0, 0, 0, 1, 1, 5]\nclass = Strategy", fillcolor="#ee7b84"] ;
26 -> 28 ;
29 [label="EU_Sales <= 0.025\ngini = 0.444\nsamples = 3\nvalue = [0, 0, 0, 0, 0, 0, 0, 0, 0, 0, 1, 2]\nclass = Strategy", fillcolor="#f29ca3"] ;
28 -> 29 ;
30 [label="gini = 0.0\nsamples = 1\nvalue = [0, 0, 0, 0, 0, 0, 0, 0, 0, 0, 0, 1]\nclass = Strategy", fillcolor="#e53947"] ;
29 -> 30 ;
31 [label="gini = 0.5\nsamples = 2\nvalue = [0, 0, 0, 0, 0, 0, 0, 0, 0, 0, 1, 1]\nclass = Sports", fillcolor="#ffffff"] ;
29 -> 31 ;
32 [label="Global_Sales <= 0.045\ngini = 0.375\nsamples = 4\nvalue = [0, 0, 0, 0, 0, 0, 0, 0, 0, 1, 0, 3]\nclass = Strategy", fillcolor="#ee7b84"] ;
28 -> 32 ;
33 [label="gini = 0.0\nsamples = 1\nvalue = [0, 0, 0, 0, 0, 0, 0, 0, 0, 0, 0, 1]\nclass = Strategy", fillcolor="#e53947"] ;
32 -> 33 ;
34 [label="Global_Sales <= 0.08\ngini = 0.444\nsamples = 3\nvalue = [0, 0, 0, 0, 0, 0, 0, 0, 0, 1, 0, 2]\nclass = Strategy", fillcolor="#f29ca3"] ;
32 -> 34 ;
35 [label="gini = 0.5\nsamples = 2\nvalue = [0, 0, 0, 0, 0, 0, 0, 0, 0, 1, 0, 1]\nclass = Simulation", fillcolor="#ffffff"] ;
34 -> 35 ;
36 [label="gini = 0.0\nsamples = 1\nvalue = [0, 0, 0, 0, 0, 0, 0, 0, 0, 0, 0, 1]\nclass = Strategy", fillcolor="#e53947"] ;
34 -> 36 ;
37 [label="EU_Sales <= 0.015\ngini = 0.858\nsamples = 122\nvalue = [15, 6, 1, 2, 1, 2, 9, 13, 22, 15, 7, 29]\nclass = Strategy", fillcolor="#fdf1f2"] ;
5 -> 37 ;
38 [label="Year <= 2005.5\ngini = 0.864\nsamples = 35\nvalue = [7, 3, 0, 2, 0, 0, 2, 2, 6, 3, 6, 4]\nclass = Action", fillcolor="#fefbf8"] ;
37 -> 38 ;
39 [label="Year <= 2003.5\ngini = 0.83\nsamples = 21\nvalue = [4, 2, 0, 0, 0, 0, 2, 1, 5, 0, 4, 3]\nclass = Shooter", fillcolor="#f8f3fd"] ;
38 -> 39 ;
40 [label="Global_Sales <= 0.015\ngini = 0.75\nsamples = 8\nvalue = [3, 1, 0, 0, 0, 0, 0, 1, 2, 0, 0, 1]\nclass = Action", fillcolor="#fbeade"] ;
39 -> 40 ;
41 [label="Year <= 2002.5\ngini = 0.694\nsamples = 7\nvalue = [3, 0, 0, 0, 0, 0, 0, 1, 2, 0, 0, 1]\nclass = Action", fillcolor="#fae6d7"] ;
40 -> 41 ;
42 [label="gini = 0.722\nsamples = 6\nvalue = [2, 0, 0, 0, 0, 0, 0, 1, 2, 0, 0, 1]\nclass = Action", fillcolor="#ffffff"] ;
41 -> 42 ;
43 [label="gini = 0.0\nsamples = 1\nvalue = [1, 0, 0, 0, 0, 0, 0, 0, 0, 0, 0, 0]\nclass = Action", fillcolor="#e58139"] ;
41 -> 43 ;
44 [label="gini = 0.0\nsamples = 1\nvalue = [0, 1, 0, 0, 0, 0, 0, 0, 0, 0, 0, 0]\nclass = Adventure", fillcolor="#e5d739"] ;
40 -> 44 ;
45 [label="Year <= 2004.5\ngini = 0.793\nsamples = 13\nvalue = [1, 1, 0, 0, 0, 0, 2, 0, 3, 0, 4, 2]\nclass = Sports", fillcolor="#fcebf5"] ;
39 -> 45 ;
46 [label="Global_Sales <= 0.015\ngini = 0.75\nsamples = 8\nvalue = [0, 1, 0, 0, 0, 0, 2, 0, 1, 0, 3, 1]\nclass = Sports", fillcolor="#fbdeef"] ;
45 -> 46 ;
47 [label="gini = 0.444\nsamples = 3\nvalue = [0, 0, 0, 0, 0, 0, 1, 0, 0, 0, 2, 0]\nclass = Sports", fillcolor="#f29cce"] ;
46 -> 47 ;
48 [label="gini = 0.8\nsamples = 5\nvalue = [0, 1, 0, 0, 0, 0, 1, 0, 1, 0, 1, 1]\nclass = Adventure", fillcolor="#ffffff"] ;
46 -> 48 ;
49 [label="Global_Sales <= 0.015\ngini = 0.72\nsamples = 5\nvalue = [1, 0, 0, 0, 0, 0, 0, 0, 2, 0, 1, 1]\nclass = Shooter", fillcolor="#e0cef8"] ;
45 -> 49 ;
50 [label="gini = 0.667\nsamples = 3\nvalue = [0, 0, 0, 0, 0, 0, 0, 0, 1, 0, 1, 1]\nclass = Shooter", fillcolor="#ffffff"] ;
49 -> 50 ;
51 [label="gini = 0.5\nsamples = 2\nvalue = [1, 0, 0, 0, 0, 0, 0, 0, 1, 0, 0, 0]\nclass = Action", fillcolor="#ffffff"] ;
49 -> 51 ;
52 [label="Global_Sales <= 0.015\ngini = 0.847\nsamples = 14\nvalue = [3, 1, 0, 2, 0, 0, 0, 1, 1, 3, 2, 1]\nclass = Action", fillcolor="#ffffff"] ;
38 -> 52 ;
53 [label="gini = 0.722\nsamples = 6\nvalue = [0, 0, 0, 2, 0, 0, 0, 0, 1, 1, 2, 0]\nclass = Misc", fillcolor="#ffffff"] ;
52 -> 53 ;
54 [label="gini = 0.75\nsamples = 8\nvalue = [3, 1, 0, 0, 0, 0, 0, 1, 0, 2, 0, 1]\nclass = Action", fillcolor="#fbeade"] ;
52 -> 54 ;
55 [label="Other_Sales <= 0.095\ngini = 0.832\nsamples = 87\nvalue = [8, 3, 1, 0, 1, 2, 7, 11, 16, 12, 1, 25]\nclass = Strategy", fillcolor="#fce6e8"] ;
37 -> 55 ;
56 [label="Year <= 2002.5\ngini = 0.828\nsamples = 86\nvalue = [8, 3, 0, 0, 1, 2, 7, 11, 16, 12, 1, 25]\nclass = Strategy", fillcolor="#fce6e7"] ;
55 -> 56 ;
57 [label="Global_Sales <= 0.025\ngini = 0.625\nsamples = 4\nvalue = [2, 0, 0, 0, 0, 0, 0, 1, 0, 0, 0, 1]\nclass = Action", fillcolor="#f6d5bd"] ;
56 -> 57 ;
58 [label="gini = 0.0\nsamples = 1\nvalue = [0, 0, 0, 0, 0, 0, 0, 0, 0, 0, 0, 1]\nclass = Strategy", fillcolor="#e53947"] ;
57 -> 58 ;
59 [label="EU_Sales <= 0.025\ngini = 0.444\nsamples = 3\nvalue = [2, 0, 0, 0, 0, 0, 0, 1, 0, 0, 0, 0]\nclass = Action", fillcolor="#f2c09c"] ;
57 -> 59 ;
60 [label="gini = 0.0\nsamples = 1\nvalue = [1, 0, 0, 0, 0, 0, 0, 0, 0, 0, 0, 0]\nclass = Action", fillcolor="#e58139"] ;
59 -> 60 ;
61 [label="EU_Sales <= 0.035\ngini = 0.5\nsamples = 2\nvalue = [1, 0, 0, 0, 0, 0, 0, 1, 0, 0, 0, 0]\nclass = Action", fillcolor="#ffffff"] ;
59 -> 61 ;
62 [label="gini = 0.0\nsamples = 1\nvalue = [0, 0, 0, 0, 0, 0, 0, 1, 0, 0, 0, 0]\nclass = Role-Playing", fillcolor="#3947e5"] ;
61 -> 62 ;
63 [label="gini = 0.0\nsamples = 1\nvalue = [1, 0, 0, 0, 0, 0, 0, 0, 0, 0, 0, 0]\nclass = Action", fillcolor="#e58139"] ;
61 -> 63 ;
64 [label="EU_Sales <= 0.62\ngini = 0.825\nsamples = 82\nvalue = [6, 3, 0, 0, 1, 2, 7, 10, 16, 12, 1, 24]\nclass = Strategy", fillcolor="#fce7e9"] ;
56 -> 64 ;
65 [label="Year <= 2005.5\ngini = 0.822\nsamples = 81\nvalue = [5, 3, 0, 0, 1, 2, 7, 10, 16, 12, 1, 24]\nclass = Strategy", fillcolor="#fce7e8"] ;
64 -> 65 ;
66 [label="Year <= 2003.5\ngini = 0.819\nsamples = 52\nvalue = [3, 2, 0, 0, 1, 0, 5, 7, 13, 8, 0, 13]\nclass = Shooter", fillcolor="#ffffff"] ;
65 -> 66 ;
67 [label="Global_Sales <= 0.06\ngini = 0.802\nsamples = 18\nvalue = [1, 1, 0, 0, 1, 0, 1, 1, 3, 5, 0, 5]\nclass = Simulation", fillcolor="#ffffff"] ;
66 -> 67 ;
68 [label="Global_Sales <= 0.045\ngini = 0.791\nsamples = 15\nvalue = [1, 1, 0, 0, 1, 0, 1, 0, 3, 3, 0, 5]\nclass = Strategy", fillcolor="#fbdee0"] ;
67 -> 68 ;
69 [label="Global_Sales <= 0.035\ngini = 0.765\nsamples = 14\nvalue = [1, 1, 0, 0, 1, 0, 0, 0, 3, 3, 0, 5]\nclass = Strategy", fillcolor="#fadbde"] ;
68 -> 69 ;
70 [label="Other_Sales <= 0.005\ngini = 0.76\nsamples = 10\nvalue = [0, 1, 0, 0, 1, 0, 0, 0, 2, 3, 0, 3]\nclass = Simulation", fillcolor="#ffffff"] ;
69 -> 70 ;
71 [label="Global_Sales <= 0.025\ngini = 0.722\nsamples = 6\nvalue = [0, 1, 0, 0, 0, 0, 0, 0, 2, 2, 0, 1]\nclass = Shooter", fillcolor="#ffffff"] ;
70 -> 71 ;
72 [label="gini = 0.75\nsamples = 4\nvalue = [0, 1, 0, 0, 0, 0, 0, 0, 1, 1, 0, 1]\nclass = Adventure", fillcolor="#ffffff"] ;
71 -> 72 ;
73 [label="gini = 0.5\nsamples = 2\nvalue = [0, 0, 0, 0, 0, 0, 0, 0, 1, 1, 0, 0]\nclass = Shooter", fillcolor="#ffffff"] ;
71 -> 73 ;
74 [label="EU_Sales <= 0.025\ngini = 0.625\nsamples = 4\nvalue = [0, 0, 0, 0, 1, 0, 0, 0, 0, 1, 0, 2]\nclass = Strategy", fillcolor="#f6bdc2"] ;
70 -> 74 ;
75 [label="gini = 0.0\nsamples = 1\nvalue = [0, 0, 0, 0, 0, 0, 0, 0, 0, 0, 0, 1]\nclass = Strategy", fillcolor="#e53947"] ;
74 -> 75 ;
76 [label="gini = 0.667\nsamples = 3\nvalue = [0, 0, 0, 0, 1, 0, 0, 0, 0, 1, 0, 1]\nclass = Platform", fillcolor="#ffffff"] ;
74 -> 76 ;
77 [label="Other_Sales <= 0.005\ngini = 0.625\nsamples = 4\nvalue = [1, 0, 0, 0, 0, 0, 0, 0, 1, 0, 0, 2]\nclass = Strategy", fillcolor="#f6bdc2"] ;
69 -> 77 ;
78 [label="gini = 0.0\nsamples = 1\nvalue = [0, 0, 0, 0, 0, 0, 0, 0, 0, 0, 0, 1]\nclass = Strategy", fillcolor="#e53947"] ;
77 -> 78 ;
79 [label="gini = 0.667\nsamples = 3\nvalue = [1, 0, 0, 0, 0, 0, 0, 0, 1, 0, 0, 1]\nclass = Action", fillcolor="#ffffff"] ;
77 -> 79 ;
80 [label="gini = 0.0\nsamples = 1\nvalue = [0, 0, 0, 0, 0, 0, 1, 0, 0, 0, 0, 0]\nclass = Racing", fillcolor="#399de5"] ;
68 -> 80 ;
81 [label="Other_Sales <= 0.015\ngini = 0.444\nsamples = 3\nvalue = [0, 0, 0, 0, 0, 0, 0, 1, 0, 2, 0, 0]\nclass = Simulation", fillcolor="#eb9cf2"] ;
67 -> 81 ;
82 [label="gini = 0.0\nsamples = 2\nvalue = [0, 0, 0, 0, 0, 0, 0, 0, 0, 2, 0, 0]\nclass = Simulation", fillcolor="#d739e5"] ;
81 -> 82 ;
83 [label="gini = 0.0\nsamples = 1\nvalue = [0, 0, 0, 0, 0, 0, 0, 1, 0, 0, 0, 0]\nclass = Role-Playing", fillcolor="#3947e5"] ;
81 -> 83 ;
84 [label="Global_Sales <= 0.095\ngini = 0.801\nsamples = 34\nvalue = [2, 1, 0, 0, 0, 0, 4, 6, 10, 3, 0, 8]\nclass = Shooter", fillcolor="#f5f0fd"] ;
66 -> 84 ;
85 [label="Global_Sales <= 0.045\ngini = 0.797\nsamples = 31\nvalue = [2, 1, 0, 0, 0, 0, 3, 6, 10, 3, 0, 6]\nclass = Shooter", fillcolor="#ebdffb"] ;
84 -> 85 ;
86 [label="EU_Sales <= 0.025\ngini = 0.813\nsamples = 23\nvalue = [2, 1, 0, 0, 0, 0, 2, 6, 5, 2, 0, 5]\nclass = Role-Playing", fillcolor="#f4f5fe"] ;
85 -> 86 ;
87 [label="Other_Sales <= 0.005\ngini = 0.773\nsamples = 15\nvalue = [0, 1, 0, 0, 0, 0, 1, 4, 5, 2, 0, 2]\nclass = Shooter", fillcolor="#f4edfd"] ;
86 -> 87 ;
88 [label="Year <= 2004.5\ngini = 0.755\nsamples = 14\nvalue = [0, 1, 0, 0, 0, 0, 1, 4, 5, 2, 0, 1]\nclass = Shooter", fillcolor="#f2ebfc"] ;
87 -> 88 ;
89 [label="Global_Sales <= 0.025\ngini = 0.5\nsamples = 4\nvalue = [0, 0, 0, 0, 0, 0, 0, 2, 2, 0, 0, 0]\nclass = Role-Playing", fillcolor="#ffffff"] ;
88 -> 89 ;
90 [label="gini = 0.5\nsamples = 2\nvalue = [0, 0, 0, 0, 0, 0, 0, 1, 1, 0, 0, 0]\nclass = Role-Playing", fillcolor="#ffffff"] ;
89 -> 90 ;
91 [label="gini = 0.5\nsamples = 2\nvalue = [0, 0, 0, 0, 0, 0, 0, 1, 1, 0, 0, 0]\nclass = Role-Playing", fillcolor="#ffffff"] ;
89 -> 91 ;
92 [label="Global_Sales <= 0.025\ngini = 0.8\nsamples = 10\nvalue = [0, 1, 0, 0, 0, 0, 1, 2, 3, 2, 0, 1]\nclass = Shooter", fillcolor="#efe6fc"] ;
88 -> 92 ;
93 [label="gini = 0.812\nsamples = 8\nvalue = [0, 1, 0, 0, 0, 0, 1, 1, 2, 2, 0, 1]\nclass = Shooter", fillcolor="#ffffff"] ;
92 -> 93 ;
94 [label="gini = 0.5\nsamples = 2\nvalue = [0, 0, 0, 0, 0, 0, 0, 1, 1, 0, 0, 0]\nclass = Role-Playing", fillcolor="#ffffff"] ;
92 -> 94 ;
95 [label="gini = 0.0\nsamples = 1\nvalue = [0, 0, 0, 0, 0, 0, 0, 0, 0, 0, 0, 1]\nclass = Strategy", fillcolor="#e53947"] ;
87 -> 95 ;
96 [label="Other_Sales <= 0.005\ngini = 0.719\nsamples = 8\nvalue = [2, 0, 0, 0, 0, 0, 1, 2, 0, 0, 0, 3]\nclass = Strategy", fillcolor="#fbdee0"] ;
86 -> 96 ;
97 [label="Global_Sales <= 0.035\ngini = 0.444\nsamples = 3\nvalue = [1, 0, 0, 0, 0, 0, 0, 0, 0, 0, 0, 2]\nclass = Strategy", fillcolor="#f29ca3"] ;
96 -> 97 ;
98 [label="gini = 0.0\nsamples = 1\nvalue = [0, 0, 0, 0, 0, 0, 0, 0, 0, 0, 0, 1]\nclass = Strategy", fillcolor="#e53947"] ;
97 -> 98 ;
99 [label="EU_Sales <= 0.035\ngini = 0.5\nsamples = 2\nvalue = [1, 0, 0, 0, 0, 0, 0, 0, 0, 0, 0, 1]\nclass = Action", fillcolor="#ffffff"] ;
97 -> 99 ;
100 [label="gini = 0.0\nsamples = 1\nvalue = [1, 0, 0, 0, 0, 0, 0, 0, 0, 0, 0, 0]\nclass = Action", fillcolor="#e58139"] ;
99 -> 100 ;
101 [label="gini = 0.0\nsamples = 1\nvalue = [0, 0, 0, 0, 0, 0, 0, 0, 0, 0, 0, 1]\nclass = Strategy", fillcolor="#e53947"] ;
99 -> 101 ;
102 [label="Year <= 2004.5\ngini = 0.72\nsamples = 5\nvalue = [1, 0, 0, 0, 0, 0, 1, 2, 0, 0, 0, 1]\nclass = Role-Playing", fillcolor="#ced1f8"] ;
96 -> 102 ;
103 [label="gini = 0.667\nsamples = 3\nvalue = [1, 0, 0, 0, 0, 0, 1, 0, 0, 0, 0, 1]\nclass = Action", fillcolor="#ffffff"] ;
102 -> 103 ;
104 [label="gini = 0.0\nsamples = 2\nvalue = [0, 0, 0, 0, 0, 0, 0, 2, 0, 0, 0, 0]\nclass = Role-Playing", fillcolor="#3947e5"] ;
102 -> 104 ;
105 [label="Global_Sales <= 0.055\ngini = 0.562\nsamples = 8\nvalue = [0, 0, 0, 0, 0, 0, 1, 0, 5, 1, 0, 1]\nclass = Shooter", fillcolor="#b78ef0"] ;
85 -> 105 ;
106 [label="gini = 0.0\nsamples = 2\nvalue = [0, 0, 0, 0, 0, 0, 0, 0, 2, 0, 0, 0]\nclass = Shooter", fillcolor="#8139e5"] ;
105 -> 106 ;
107 [label="Other_Sales <= 0.015\ngini = 0.667\nsamples = 6\nvalue = [0, 0, 0, 0, 0, 0, 1, 0, 3, 1, 0, 1]\nclass = Shooter", fillcolor="#cdb0f5"] ;
105 -> 107 ;
108 [label="EU_Sales <= 0.055\ngini = 0.75\nsamples = 4\nvalue = [0, 0, 0, 0, 0, 0, 1, 0, 1, 1, 0, 1]\nclass = Racing", fillcolor="#ffffff"] ;
107 -> 108 ;
109 [label="Year <= 2004.5\ngini = 0.5\nsamples = 2\nvalue = [0, 0, 0, 0, 0, 0, 0, 0, 1, 0, 0, 1]\nclass = Shooter", fillcolor="#ffffff"] ;
108 -> 109 ;
110 [label="gini = 0.0\nsamples = 1\nvalue = [0, 0, 0, 0, 0, 0, 0, 0, 0, 0, 0, 1]\nclass = Strategy", fillcolor="#e53947"] ;
109 -> 110 ;
111 [label="gini = 0.0\nsamples = 1\nvalue = [0, 0, 0, 0, 0, 0, 0, 0, 1, 0, 0, 0]\nclass = Shooter", fillcolor="#8139e5"] ;
109 -> 111 ;
112 [label="Year <= 2004.5\ngini = 0.5\nsamples = 2\nvalue = [0, 0, 0, 0, 0, 0, 1, 0, 0, 1, 0, 0]\nclass = Racing", fillcolor="#ffffff"] ;
108 -> 112 ;
113 [label="gini = 0.0\nsamples = 1\nvalue = [0, 0, 0, 0, 0, 0, 1, 0, 0, 0, 0, 0]\nclass = Racing", fillcolor="#399de5"] ;
112 -> 113 ;
114 [label="gini = 0.0\nsamples = 1\nvalue = [0, 0, 0, 0, 0, 0, 0, 0, 0, 1, 0, 0]\nclass = Simulation", fillcolor="#d739e5"] ;
112 -> 114 ;
115 [label="gini = 0.0\nsamples = 2\nvalue = [0, 0, 0, 0, 0, 0, 0, 0, 2, 0, 0, 0]\nclass = Shooter", fillcolor="#8139e5"] ;
107 -> 115 ;
116 [label="Other_Sales <= 0.01\ngini = 0.444\nsamples = 3\nvalue = [0, 0, 0, 0, 0, 0, 1, 0, 0, 0, 0, 2]\nclass = Strategy", fillcolor="#f29ca3"] ;
84 -> 116 ;
117 [label="gini = 0.0\nsamples = 1\nvalue = [0, 0, 0, 0, 0, 0, 1, 0, 0, 0, 0, 0]\nclass = Racing", fillcolor="#399de5"] ;
116 -> 117 ;
118 [label="gini = 0.0\nsamples = 2\nvalue = [0, 0, 0, 0, 0, 0, 0, 0, 0, 0, 0, 2]\nclass = Strategy", fillcolor="#e53947"] ;
116 -> 118 ;
119 [label="Global_Sales <= 0.185\ngini = 0.799\nsamples = 29\nvalue = [2, 1, 0, 0, 0, 2, 2, 3, 3, 4, 1, 11]\nclass = Strategy", fillcolor="#f8c8cb"] ;
65 -> 119 ;
120 [label="EU_Sales <= 0.025\ngini = 0.782\nsamples = 27\nvalue = [2, 1, 0, 0, 0, 1, 2, 3, 3, 3, 1, 11]\nclass = Strategy", fillcolor="#f6bdc2"] ;
119 -> 120 ;
121 [label="Other_Sales <= 0.005\ngini = 0.806\nsamples = 12\nvalue = [1, 0, 0, 0, 0, 1, 1, 2, 2, 0, 1, 4]\nclass = Strategy", fillcolor="#fad7da"] ;
120 -> 121 ;
122 [label="Global_Sales <= 0.025\ngini = 0.793\nsamples = 11\nvalue = [1, 0, 0, 0, 0, 1, 1, 1, 2, 0, 1, 4]\nclass = Strategy", fillcolor="#f9d3d6"] ;
121 -> 122 ;
123 [label="gini = 0.735\nsamples = 7\nvalue = [0, 0, 0, 0, 0, 1, 1, 0, 1, 0, 1, 3]\nclass = Strategy", fillcolor="#f6bdc2"] ;
122 -> 123 ;
124 [label="gini = 0.75\nsamples = 4\nvalue = [1, 0, 0, 0, 0, 0, 0, 1, 1, 0, 0, 1]\nclass = Action", fillcolor="#ffffff"] ;
122 -> 124 ;
125 [label="gini = 0.0\nsamples = 1\nvalue = [0, 0, 0, 0, 0, 0, 0, 1, 0, 0, 0, 0]\nclass = Role-Playing", fillcolor="#3947e5"] ;
121 -> 125 ;
126 [label="Global_Sales <= 0.045\ngini = 0.72\nsamples = 15\nvalue = [1, 1, 0, 0, 0, 0, 1, 1, 1, 3, 0, 7]\nclass = Strategy", fillcolor="#f6bdc2"] ;
120 -> 126 ;
127 [label="EU_Sales <= 0.035\ngini = 0.667\nsamples = 9\nvalue = [1, 0, 0, 0, 0, 0, 0, 0, 1, 3, 0, 4]\nclass = Strategy", fillcolor="#fbdee0"] ;
126 -> 127 ;
128 [label="Global_Sales <= 0.035\ngini = 0.656\nsamples = 8\nvalue = [1, 0, 0, 0, 0, 0, 0, 0, 1, 2, 0, 4]\nclass = Strategy", fillcolor="#f6bdc2"] ;
127 -> 128 ;
129 [label="gini = 0.625\nsamples = 4\nvalue = [0, 0, 0, 0, 0, 0, 0, 0, 1, 1, 0, 2]\nclass = Strategy", fillcolor="#f6bdc2"] ;
128 -> 129 ;
130 [label="gini = 0.625\nsamples = 4\nvalue = [1, 0, 0, 0, 0, 0, 0, 0, 0, 1, 0, 2]\nclass = Strategy", fillcolor="#f6bdc2"] ;
128 -> 130 ;
131 [label="gini = 0.0\nsamples = 1\nvalue = [0, 0, 0, 0, 0, 0, 0, 0, 0, 1, 0, 0]\nclass = Simulation", fillcolor="#d739e5"] ;
127 -> 131 ;
132 [label="Global_Sales <= 0.055\ngini = 0.667\nsamples = 6\nvalue = [0, 1, 0, 0, 0, 0, 1, 1, 0, 0, 0, 3]\nclass = Strategy", fillcolor="#f5b0b5"] ;
126 -> 132 ;
133 [label="gini = 0.667\nsamples = 3\nvalue = [0, 1, 0, 0, 0, 0, 1, 0, 0, 0, 0, 1]\nclass = Adventure", fillcolor="#ffffff"] ;
132 -> 133 ;
134 [label="Other_Sales <= 0.015\ngini = 0.444\nsamples = 3\nvalue = [0, 0, 0, 0, 0, 0, 0, 1, 0, 0, 0, 2]\nclass = Strategy", fillcolor="#f29ca3"] ;
132 -> 134 ;
135 [label="gini = 0.5\nsamples = 2\nvalue = [0, 0, 0, 0, 0, 0, 0, 1, 0, 0, 0, 1]\nclass = Role-Playing", fillcolor="#ffffff"] ;
134 -> 135 ;
136 [label="gini = 0.0\nsamples = 1\nvalue = [0, 0, 0, 0, 0, 0, 0, 0, 0, 0, 0, 1]\nclass = Strategy", fillcolor="#e53947"] ;
134 -> 136 ;
137 [label="EU_Sales <= 0.24\ngini = 0.5\nsamples = 2\nvalue = [0, 0, 0, 0, 0, 1, 0, 0, 0, 1, 0, 0]\nclass = Puzzle", fillcolor="#ffffff"] ;
119 -> 137 ;
138 [label="gini = 0.0\nsamples = 1\nvalue = [0, 0, 0, 0, 0, 1, 0, 0, 0, 0, 0, 0]\nclass = Puzzle", fillcolor="#39e5d7"] ;
137 -> 138 ;
139 [label="gini = 0.0\nsamples = 1\nvalue = [0, 0, 0, 0, 0, 0, 0, 0, 0, 1, 0, 0]\nclass = Simulation", fillcolor="#d739e5"] ;
137 -> 139 ;
140 [label="gini = 0.0\nsamples = 1\nvalue = [1, 0, 0, 0, 0, 0, 0, 0, 0, 0, 0, 0]\nclass = Action", fillcolor="#e58139"] ;
64 -> 140 ;
141 [label="gini = 0.0\nsamples = 1\nvalue = [0, 0, 1, 0, 0, 0, 0, 0, 0, 0, 0, 0]\nclass = Fighting", fillcolor="#9de539"] ;
55 -> 141 ;
142 [label="gini = 0.0\nsamples = 3\nvalue = [0, 0, 0, 0, 0, 0, 0, 0, 0, 0, 3, 0]\nclass = Sports", fillcolor="#e5399d"] ;
4 -> 142 ;
143 [label="EU_Sales <= 0.595\ngini = 0.245\nsamples = 7\nvalue = [0, 0, 0, 6, 0, 0, 0, 1, 0, 0, 0, 0]\nclass = Misc", fillcolor="#66e95a"] ;
3 -> 143 ;
144 [label="gini = 0.0\nsamples = 1\nvalue = [0, 0, 0, 0, 0, 0, 0, 1, 0, 0, 0, 0]\nclass = Role-Playing", fillcolor="#3947e5"] ;
143 -> 144 ;
145 [label="gini = 0.0\nsamples = 6\nvalue = [0, 0, 0, 6, 0, 0, 0, 0, 0, 0, 0, 0]\nclass = Misc", fillcolor="#47e539"] ;
143 -> 145 ;
146 [label="Year <= 1983.5\ngini = 0.882\nsamples = 4630\nvalue = [831, 180, 247, 371, 411, 137, 594, 219, 474, 157\n860, 149]\nclass = Sports", fillcolor="#fffdfe"] ;
2 -> 146 ;
147 [label="Global_Sales <= 0.95\ngini = 0.699\nsamples = 102\nvalue = [51, 1, 1, 5, 9, 6, 3, 0, 18, 1, 7, 0]\nclass = Action", fillcolor="#f5ceb1"] ;
146 -> 147 ;
148 [label="Year <= 1980.5\ngini = 0.579\nsamples = 78\nvalue = [49, 1, 1, 3, 2, 3, 2, 0, 9, 1, 7, 0]\nclass = Action", fillcolor="#f0b68c"] ;
147 -> 148 ;
149 [label="Global_Sales <= 0.305\ngini = 0.72\nsamples = 5\nvalue = [1, 0, 1, 2, 0, 0, 0, 0, 0, 0, 1, 0]\nclass = Misc", fillcolor="#d1f8ce"] ;
148 -> 149 ;
150 [label="gini = 0.0\nsamples = 2\nvalue = [0, 0, 0, 2, 0, 0, 0, 0, 0, 0, 0, 0]\nclass = Misc", fillcolor="#47e539"] ;
149 -> 150 ;
151 [label="Other_Sales <= 0.005\ngini = 0.667\nsamples = 3\nvalue = [1, 0, 1, 0, 0, 0, 0, 0, 0, 0, 1, 0]\nclass = Action", fillcolor="#ffffff"] ;
149 -> 151 ;
152 [label="gini = 0.0\nsamples = 1\nvalue = [1, 0, 0, 0, 0, 0, 0, 0, 0, 0, 0, 0]\nclass = Action", fillcolor="#e58139"] ;
151 -> 152 ;
153 [label="EU_Sales <= 0.035\ngini = 0.5\nsamples = 2\nvalue = [0, 0, 1, 0, 0, 0, 0, 0, 0, 0, 1, 0]\nclass = Fighting", fillcolor="#ffffff"] ;
151 -> 153 ;
154 [label="gini = 0.0\nsamples = 1\nvalue = [0, 0, 0, 0, 0, 0, 0, 0, 0, 0, 1, 0]\nclass = Sports", fillcolor="#e5399d"] ;
153 -> 154 ;
155 [label="gini = 0.0\nsamples = 1\nvalue = [0, 0, 1, 0, 0, 0, 0, 0, 0, 0, 0, 0]\nclass = Fighting", fillcolor="#9de539"] ;
153 -> 155 ;
156 [label="Global_Sales <= 0.47\ngini = 0.542\nsamples = 73\nvalue = [48, 1, 0, 1, 2, 3, 2, 0, 9, 1, 6, 0]\nclass = Action", fillcolor="#efb286"] ;
148 -> 156 ;
157 [label="NA_Sales <= 0.125\ngini = 0.396\nsamples = 43\nvalue = [33, 1, 0, 0, 0, 0, 1, 0, 3, 1, 4, 0]\nclass = Action", fillcolor="#eca16c"] ;
156 -> 157 ;
158 [label="gini = 0.0\nsamples = 1\nvalue = [0, 0, 0, 0, 0, 0, 0, 0, 0, 0, 1, 0]\nclass = Sports", fillcolor="#e5399d"] ;
157 -> 158 ;
159 [label="Year <= 1981.5\ngini = 0.371\nsamples = 42\nvalue = [33, 1, 0, 0, 0, 0, 1, 0, 3, 1, 3, 0]\nclass = Action", fillcolor="#eb9e67"] ;
157 -> 159 ;
160 [label="NA_Sales <= 0.255\ngini = 0.496\nsamples = 22\nvalue = [15, 0, 0, 0, 0, 0, 0, 0, 3, 1, 3, 0]\nclass = Action", fillcolor="#efaf82"] ;
159 -> 160 ;
161 [label="NA_Sales <= 0.205\ngini = 0.642\nsamples = 9\nvalue = [4, 0, 0, 0, 0, 0, 0, 0, 2, 0, 3, 0]\nclass = Action", fillcolor="#fbeade"] ;
160 -> 161 ;
162 [label="NA_Sales <= 0.165\ngini = 0.444\nsamples = 3\nvalue = [1, 0, 0, 0, 0, 0, 0, 0, 0, 0, 2, 0]\nclass = Sports", fillcolor="#f29cce"] ;
161 -> 162 ;
163 [label="gini = 0.0\nsamples = 1\nvalue = [1, 0, 0, 0, 0, 0, 0, 0, 0, 0, 0, 0]\nclass = Action", fillcolor="#e58139"] ;
162 -> 163 ;
164 [label="gini = 0.0\nsamples = 2\nvalue = [0, 0, 0, 0, 0, 0, 0, 0, 0, 0, 2, 0]\nclass = Sports", fillcolor="#e5399d"] ;
162 -> 164 ;
165 [label="NA_Sales <= 0.23\ngini = 0.611\nsamples = 6\nvalue = [3, 0, 0, 0, 0, 0, 0, 0, 2, 0, 1, 0]\nclass = Action", fillcolor="#f8e0ce"] ;
161 -> 165 ;
166 [label="Global_Sales <= 0.23\ngini = 0.48\nsamples = 5\nvalue = [3, 0, 0, 0, 0, 0, 0, 0, 2, 0, 0, 0]\nclass = Action", fillcolor="#f6d5bd"] ;
165 -> 166 ;
167 [label="gini = 0.444\nsamples = 3\nvalue = [2, 0, 0, 0, 0, 0, 0, 0, 1, 0, 0, 0]\nclass = Action", fillcolor="#f2c09c"] ;
166 -> 167 ;
168 [label="gini = 0.5\nsamples = 2\nvalue = [1, 0, 0, 0, 0, 0, 0, 0, 1, 0, 0, 0]\nclass = Action", fillcolor="#ffffff"] ;
166 -> 168 ;
169 [label="gini = 0.0\nsamples = 1\nvalue = [0, 0, 0, 0, 0, 0, 0, 0, 0, 0, 1, 0]\nclass = Sports", fillcolor="#e5399d"] ;
165 -> 169 ;
170 [label="NA_Sales <= 0.41\ngini = 0.272\nsamples = 13\nvalue = [11, 0, 0, 0, 0, 0, 0, 0, 1, 1, 0, 0]\nclass = Action", fillcolor="#e9965a"] ;
160 -> 170 ;
171 [label="NA_Sales <= 0.325\ngini = 0.165\nsamples = 11\nvalue = [10, 0, 0, 0, 0, 0, 0, 0, 1, 0, 0, 0]\nclass = Action", fillcolor="#e88e4d"] ;
170 -> 171 ;
172 [label="Global_Sales <= 0.335\ngini = 0.32\nsamples = 5\nvalue = [4, 0, 0, 0, 0, 0, 0, 0, 1, 0, 0, 0]\nclass = Action", fillcolor="#eca06a"] ;
171 -> 172 ;
173 [label="gini = 0.0\nsamples = 3\nvalue = [3, 0, 0, 0, 0, 0, 0, 0, 0, 0, 0, 0]\nclass = Action", fillcolor="#e58139"] ;
172 -> 173 ;
174 [label="gini = 0.5\nsamples = 2\nvalue = [1, 0, 0, 0, 0, 0, 0, 0, 1, 0, 0, 0]\nclass = Action", fillcolor="#ffffff"] ;
172 -> 174 ;
175 [label="gini = 0.0\nsamples = 6\nvalue = [6, 0, 0, 0, 0, 0, 0, 0, 0, 0, 0, 0]\nclass = Action", fillcolor="#e58139"] ;
171 -> 175 ;
176 [label="EU_Sales <= 0.025\ngini = 0.5\nsamples = 2\nvalue = [1, 0, 0, 0, 0, 0, 0, 0, 0, 1, 0, 0]\nclass = Action", fillcolor="#ffffff"] ;
170 -> 176 ;
177 [label="gini = 0.0\nsamples = 1\nvalue = [0, 0, 0, 0, 0, 0, 0, 0, 0, 1, 0, 0]\nclass = Simulation", fillcolor="#d739e5"] ;
176 -> 177 ;
178 [label="gini = 0.0\nsamples = 1\nvalue = [1, 0, 0, 0, 0, 0, 0, 0, 0, 0, 0, 0]\nclass = Action", fillcolor="#e58139"] ;
176 -> 178 ;
179 [label="NA_Sales <= 0.36\ngini = 0.185\nsamples = 20\nvalue = [18, 1, 0, 0, 0, 0, 1, 0, 0, 0, 0, 0]\nclass = Action", fillcolor="#e88e4e"] ;
159 -> 179 ;
180 [label="gini = 0.0\nsamples = 16\nvalue = [16, 0, 0, 0, 0, 0, 0, 0, 0, 0, 0, 0]\nclass = Action", fillcolor="#e58139"] ;
179 -> 180 ;
181 [label="Global_Sales <= 0.395\ngini = 0.625\nsamples = 4\nvalue = [2, 1, 0, 0, 0, 0, 1, 0, 0, 0, 0, 0]\nclass = Action", fillcolor="#f6d5bd"] ;
179 -> 181 ;
182 [label="gini = 0.0\nsamples = 1\nvalue = [0, 0, 0, 0, 0, 0, 1, 0, 0, 0, 0, 0]\nclass = Racing", fillcolor="#399de5"] ;
181 -> 182 ;
183 [label="Global_Sales <= 0.43\ngini = 0.444\nsamples = 3\nvalue = [2, 1, 0, 0, 0, 0, 0, 0, 0, 0, 0, 0]\nclass = Action", fillcolor="#f2c09c"] ;
181 -> 183 ;
184 [label="Year <= 1982.5\ngini = 0.5\nsamples = 2\nvalue = [1, 1, 0, 0, 0, 0, 0, 0, 0, 0, 0, 0]\nclass = Action", fillcolor="#ffffff"] ;
183 -> 184 ;
185 [label="gini = 0.0\nsamples = 1\nvalue = [1, 0, 0, 0, 0, 0, 0, 0, 0, 0, 0, 0]\nclass = Action", fillcolor="#e58139"] ;
184 -> 185 ;
186 [label="gini = 0.0\nsamples = 1\nvalue = [0, 1, 0, 0, 0, 0, 0, 0, 0, 0, 0, 0]\nclass = Adventure", fillcolor="#e5d739"] ;
184 -> 186 ;
187 [label="gini = 0.0\nsamples = 1\nvalue = [1, 0, 0, 0, 0, 0, 0, 0, 0, 0, 0, 0]\nclass = Action", fillcolor="#e58139"] ;
183 -> 187 ;
188 [label="Year <= 1981.5\ngini = 0.689\nsamples = 30\nvalue = [15, 0, 0, 1, 2, 3, 1, 0, 6, 0, 2, 0]\nclass = Action", fillcolor="#f5d0b5"] ;
156 -> 188 ;
189 [label="Other_Sales <= 0.005\ngini = 0.446\nsamples = 11\nvalue = [8, 0, 0, 0, 0, 1, 1, 0, 1, 0, 0, 0]\nclass = Action", fillcolor="#eda774"] ;
188 -> 189 ;
190 [label="gini = 0.0\nsamples = 1\nvalue = [0, 0, 0, 0, 0, 0, 1, 0, 0, 0, 0, 0]\nclass = Racing", fillcolor="#399de5"] ;
189 -> 190 ;
191 [label="Global_Sales <= 0.75\ngini = 0.34\nsamples = 10\nvalue = [8, 0, 0, 0, 0, 1, 0, 0, 1, 0, 0, 0]\nclass = Action", fillcolor="#eb9d65"] ;
189 -> 191 ;
192 [label="NA_Sales <= 0.665\ngini = 0.5\nsamples = 6\nvalue = [4, 0, 0, 0, 0, 1, 0, 0, 1, 0, 0, 0]\nclass = Action", fillcolor="#efb388"] ;
191 -> 192 ;
193 [label="Global_Sales <= 0.63\ngini = 0.32\nsamples = 5\nvalue = [4, 0, 0, 0, 0, 1, 0, 0, 0, 0, 0, 0]\nclass = Action", fillcolor="#eca06a"] ;
192 -> 193 ;
194 [label="Global_Sales <= 0.545\ngini = 0.444\nsamples = 3\nvalue = [2, 0, 0, 0, 0, 1, 0, 0, 0, 0, 0, 0]\nclass = Action", fillcolor="#f2c09c"] ;
193 -> 194 ;
195 [label="gini = 0.0\nsamples = 1\nvalue = [1, 0, 0, 0, 0, 0, 0, 0, 0, 0, 0, 0]\nclass = Action", fillcolor="#e58139"] ;
194 -> 195 ;
196 [label="gini = 0.5\nsamples = 2\nvalue = [1, 0, 0, 0, 0, 1, 0, 0, 0, 0, 0, 0]\nclass = Action", fillcolor="#ffffff"] ;
194 -> 196 ;
197 [label="gini = 0.0\nsamples = 2\nvalue = [2, 0, 0, 0, 0, 0, 0, 0, 0, 0, 0, 0]\nclass = Action", fillcolor="#e58139"] ;
193 -> 197 ;
198 [label="gini = 0.0\nsamples = 1\nvalue = [0, 0, 0, 0, 0, 0, 0, 0, 1, 0, 0, 0]\nclass = Shooter", fillcolor="#8139e5"] ;
192 -> 198 ;
199 [label="gini = 0.0\nsamples = 4\nvalue = [4, 0, 0, 0, 0, 0, 0, 0, 0, 0, 0, 0]\nclass = Action", fillcolor="#e58139"] ;
191 -> 199 ;
200 [label="NA_Sales <= 0.77\ngini = 0.759\nsamples = 19\nvalue = [7, 0, 0, 1, 2, 2, 0, 0, 5, 0, 2, 0]\nclass = Action", fillcolor="#fbede3"] ;
188 -> 200 ;
201 [label="EU_Sales <= 0.045\ngini = 0.735\nsamples = 18\nvalue = [7, 0, 0, 0, 2, 2, 0, 0, 5, 0, 2, 0]\nclass = Action", fillcolor="#fbece1"] ;
200 -> 201 ;
202 [label="Global_Sales <= 0.49\ngini = 0.711\nsamples = 16\nvalue = [7, 0, 0, 0, 2, 1, 0, 0, 4, 0, 2, 0]\nclass = Action", fillcolor="#f8e0ce"] ;
201 -> 202 ;
203 [label="gini = 0.0\nsamples = 1\nvalue = [0, 0, 0, 0, 0, 0, 0, 0, 1, 0, 0, 0]\nclass = Shooter", fillcolor="#8139e5"] ;
202 -> 203 ;
204 [label="Global_Sales <= 0.775\ngini = 0.702\nsamples = 15\nvalue = [7, 0, 0, 0, 2, 1, 0, 0, 3, 0, 2, 0]\nclass = Action", fillcolor="#f6d5bd"] ;
202 -> 204 ;
205 [label="Year <= 1982.5\ngini = 0.684\nsamples = 14\nvalue = [7, 0, 0, 0, 2, 1, 0, 0, 2, 0, 2, 0]\nclass = Action", fillcolor="#f4caac"] ;
204 -> 205 ;
206 [label="NA_Sales <= 0.645\ngini = 0.736\nsamples = 12\nvalue = [5, 0, 0, 0, 2, 1, 0, 0, 2, 0, 2, 0]\nclass = Action", fillcolor="#f7d9c4"] ;
205 -> 206 ;
207 [label="Global_Sales <= 0.625\ngini = 0.711\nsamples = 11\nvalue = [5, 0, 0, 0, 1, 1, 0, 0, 2, 0, 2, 0]\nclass = Action", fillcolor="#f6d5bd"] ;
206 -> 207 ;
208 [label="Global_Sales <= 0.565\ngini = 0.765\nsamples = 9\nvalue = [3, 0, 0, 0, 1, 1, 0, 0, 2, 0, 2, 0]\nclass = Action", fillcolor="#fbede3"] ;
207 -> 208 ;
209 [label="NA_Sales <= 0.51\ngini = 0.722\nsamples = 6\nvalue = [2, 0, 0, 0, 1, 0, 0, 0, 1, 0, 2, 0]\nclass = Action", fillcolor="#ffffff"] ;
208 -> 209 ;
210 [label="NA_Sales <= 0.465\ngini = 0.72\nsamples = 5\nvalue = [2, 0, 0, 0, 1, 0, 0, 0, 1, 0, 1, 0]\nclass = Action", fillcolor="#f8e0ce"] ;
209 -> 210 ;
211 [label="gini = 0.5\nsamples = 2\nvalue = [1, 0, 0, 0, 0, 0, 0, 0, 0, 0, 1, 0]\nclass = Action", fillcolor="#ffffff"] ;
210 -> 211 ;
212 [label="Global_Sales <= 0.52\ngini = 0.667\nsamples = 3\nvalue = [1, 0, 0, 0, 1, 0, 0, 0, 1, 0, 0, 0]\nclass = Action", fillcolor="#ffffff"] ;
210 -> 212 ;
213 [label="gini = 0.0\nsamples = 1\nvalue = [0, 0, 0, 0, 0, 0, 0, 0, 1, 0, 0, 0]\nclass = Shooter", fillcolor="#8139e5"] ;
212 -> 213 ;
214 [label="gini = 0.5\nsamples = 2\nvalue = [1, 0, 0, 0, 1, 0, 0, 0, 0, 0, 0, 0]\nclass = Action", fillcolor="#ffffff"] ;
212 -> 214 ;
215 [label="gini = 0.0\nsamples = 1\nvalue = [0, 0, 0, 0, 0, 0, 0, 0, 0, 0, 1, 0]\nclass = Sports", fillcolor="#e5399d"] ;
209 -> 215 ;
216 [label="NA_Sales <= 0.565\ngini = 0.667\nsamples = 3\nvalue = [1, 0, 0, 0, 0, 1, 0, 0, 1, 0, 0, 0]\nclass = Action", fillcolor="#ffffff"] ;
208 -> 216 ;
217 [label="gini = 0.0\nsamples = 1\nvalue = [0, 0, 0, 0, 0, 1, 0, 0, 0, 0, 0, 0]\nclass = Puzzle", fillcolor="#39e5d7"] ;
216 -> 217 ;
218 [label="gini = 0.5\nsamples = 2\nvalue = [1, 0, 0, 0, 0, 0, 0, 0, 1, 0, 0, 0]\nclass = Action", fillcolor="#ffffff"] ;
216 -> 218 ;
219 [label="gini = 0.0\nsamples = 2\nvalue = [2, 0, 0, 0, 0, 0, 0, 0, 0, 0, 0, 0]\nclass = Action", fillcolor="#e58139"] ;
207 -> 219 ;
220 [label="gini = 0.0\nsamples = 1\nvalue = [0, 0, 0, 0, 1, 0, 0, 0, 0, 0, 0, 0]\nclass = Platform", fillcolor="#39e581"] ;
206 -> 220 ;
221 [label="gini = 0.0\nsamples = 2\nvalue = [2, 0, 0, 0, 0, 0, 0, 0, 0, 0, 0, 0]\nclass = Action", fillcolor="#e58139"] ;
205 -> 221 ;
222 [label="gini = 0.0\nsamples = 1\nvalue = [0, 0, 0, 0, 0, 0, 0, 0, 1, 0, 0, 0]\nclass = Shooter", fillcolor="#8139e5"] ;
204 -> 222 ;
223 [label="Year <= 1982.5\ngini = 0.5\nsamples = 2\nvalue = [0, 0, 0, 0, 0, 1, 0, 0, 1, 0, 0, 0]\nclass = Puzzle", fillcolor="#ffffff"] ;
201 -> 223 ;
224 [label="gini = 0.0\nsamples = 1\nvalue = [0, 0, 0, 0, 0, 0, 0, 0, 1, 0, 0, 0]\nclass = Shooter", fillcolor="#8139e5"] ;
223 -> 224 ;
225 [label="gini = 0.0\nsamples = 1\nvalue = [0, 0, 0, 0, 0, 1, 0, 0, 0, 0, 0, 0]\nclass = Puzzle", fillcolor="#39e5d7"] ;
223 -> 225 ;
226 [label="gini = 0.0\nsamples = 1\nvalue = [0, 0, 0, 1, 0, 0, 0, 0, 0, 0, 0, 0]\nclass = Misc", fillcolor="#47e539"] ;
200 -> 226 ;
227 [label="Year <= 1981.5\ngini = 0.743\nsamples = 24\nvalue = [2, 0, 0, 2, 7, 3, 1, 0, 9, 0, 0, 0]\nclass = Shooter", fillcolor="#f0e8fc"] ;
147 -> 227 ;
228 [label="Year <= 1980.5\ngini = 0.68\nsamples = 16\nvalue = [2, 0, 0, 2, 3, 1, 0, 0, 8, 0, 0, 0]\nclass = Shooter", fillcolor="#cfb3f5"] ;
227 -> 228 ;
229 [label="NA_Sales <= 1.815\ngini = 0.5\nsamples = 4\nvalue = [0, 0, 0, 2, 0, 0, 0, 0, 2, 0, 0, 0]\nclass = Misc", fillcolor="#ffffff"] ;
228 -> 229 ;
230 [label="gini = 0.0\nsamples = 2\nvalue = [0, 0, 0, 2, 0, 0, 0, 0, 0, 0, 0, 0]\nclass = Misc", fillcolor="#47e539"] ;
229 -> 230 ;
231 [label="gini = 0.0\nsamples = 2\nvalue = [0, 0, 0, 0, 0, 0, 0, 0, 2, 0, 0, 0]\nclass = Shooter", fillcolor="#8139e5"] ;
229 -> 231 ;
232 [label="NA_Sales <= 1.515\ngini = 0.653\nsamples = 12\nvalue = [2, 0, 0, 0, 3, 1, 0, 0, 6, 0, 0, 0]\nclass = Shooter", fillcolor="#d5bdf6"] ;
228 -> 232 ;
233 [label="NA_Sales <= 0.945\ngini = 0.408\nsamples = 7\nvalue = [0, 0, 0, 0, 2, 0, 0, 0, 5, 0, 0, 0]\nclass = Shooter", fillcolor="#b388ef"] ;
232 -> 233 ;
234 [label="gini = 0.0\nsamples = 1\nvalue = [0, 0, 0, 0, 1, 0, 0, 0, 0, 0, 0, 0]\nclass = Platform", fillcolor="#39e581"] ;
233 -> 234 ;
235 [label="Other_Sales <= 0.015\ngini = 0.278\nsamples = 6\nvalue = [0, 0, 0, 0, 1, 0, 0, 0, 5, 0, 0, 0]\nclass = Shooter", fillcolor="#9a61ea"] ;
233 -> 235 ;
236 [label="gini = 0.0\nsamples = 4\nvalue = [0, 0, 0, 0, 0, 0, 0, 0, 4, 0, 0, 0]\nclass = Shooter", fillcolor="#8139e5"] ;
235 -> 236 ;
237 [label="EU_Sales <= 0.085\ngini = 0.5\nsamples = 2\nvalue = [0, 0, 0, 0, 1, 0, 0, 0, 1, 0, 0, 0]\nclass = Platform", fillcolor="#ffffff"] ;
235 -> 237 ;
238 [label="gini = 0.0\nsamples = 1\nvalue = [0, 0, 0, 0, 1, 0, 0, 0, 0, 0, 0, 0]\nclass = Platform", fillcolor="#39e581"] ;
237 -> 238 ;
239 [label="gini = 0.0\nsamples = 1\nvalue = [0, 0, 0, 0, 0, 0, 0, 0, 1, 0, 0, 0]\nclass = Shooter", fillcolor="#8139e5"] ;
237 -> 239 ;
240 [label="Other_Sales <= 0.035\ngini = 0.72\nsamples = 5\nvalue = [2, 0, 0, 0, 1, 1, 0, 0, 1, 0, 0, 0]\nclass = Action", fillcolor="#f8e0ce"] ;
232 -> 240 ;
241 [label="NA_Sales <= 1.69\ngini = 0.625\nsamples = 4\nvalue = [2, 0, 0, 0, 0, 1, 0, 0, 1, 0, 0, 0]\nclass = Action", fillcolor="#f6d5bd"] ;
240 -> 241 ;
242 [label="gini = 0.0\nsamples = 1\nvalue = [0, 0, 0, 0, 0, 1, 0, 0, 0, 0, 0, 0]\nclass = Puzzle", fillcolor="#39e5d7"] ;
241 -> 242 ;
243 [label="EU_Sales <= 0.115\ngini = 0.444\nsamples = 3\nvalue = [2, 0, 0, 0, 0, 0, 0, 0, 1, 0, 0, 0]\nclass = Action", fillcolor="#f2c09c"] ;
241 -> 243 ;
244 [label="gini = 0.0\nsamples = 1\nvalue = [1, 0, 0, 0, 0, 0, 0, 0, 0, 0, 0, 0]\nclass = Action", fillcolor="#e58139"] ;
243 -> 244 ;
245 [label="NA_Sales <= 2.025\ngini = 0.5\nsamples = 2\nvalue = [1, 0, 0, 0, 0, 0, 0, 0, 1, 0, 0, 0]\nclass = Action", fillcolor="#ffffff"] ;
243 -> 245 ;
246 [label="gini = 0.0\nsamples = 1\nvalue = [0, 0, 0, 0, 0, 0, 0, 0, 1, 0, 0, 0]\nclass = Shooter", fillcolor="#8139e5"] ;
245 -> 246 ;
247 [label="gini = 0.0\nsamples = 1\nvalue = [1, 0, 0, 0, 0, 0, 0, 0, 0, 0, 0, 0]\nclass = Action", fillcolor="#e58139"] ;
245 -> 247 ;
248 [label="gini = 0.0\nsamples = 1\nvalue = [0, 0, 0, 0, 1, 0, 0, 0, 0, 0, 0, 0]\nclass = Platform", fillcolor="#39e581"] ;
240 -> 248 ;
249 [label="NA_Sales <= 1.5\ngini = 0.656\nsamples = 8\nvalue = [0, 0, 0, 0, 4, 2, 1, 0, 1, 0, 0, 0]\nclass = Platform", fillcolor="#bdf6d5"] ;
227 -> 249 ;
250 [label="NA_Sales <= 1.04\ngini = 0.5\nsamples = 6\nvalue = [0, 0, 0, 0, 4, 0, 1, 0, 1, 0, 0, 0]\nclass = Platform", fillcolor="#88efb3"] ;
249 -> 250 ;
251 [label="gini = 0.0\nsamples = 2\nvalue = [0, 0, 0, 0, 2, 0, 0, 0, 0, 0, 0, 0]\nclass = Platform", fillcolor="#39e581"] ;
250 -> 251 ;
252 [label="NA_Sales <= 1.16\ngini = 0.625\nsamples = 4\nvalue = [0, 0, 0, 0, 2, 0, 1, 0, 1, 0, 0, 0]\nclass = Platform", fillcolor="#bdf6d5"] ;
250 -> 252 ;
253 [label="NA_Sales <= 1.075\ngini = 0.5\nsamples = 2\nvalue = [0, 0, 0, 0, 0, 0, 1, 0, 1, 0, 0, 0]\nclass = Racing", fillcolor="#ffffff"] ;
252 -> 253 ;
254 [label="gini = 0.0\nsamples = 1\nvalue = [0, 0, 0, 0, 0, 0, 0, 0, 1, 0, 0, 0]\nclass = Shooter", fillcolor="#8139e5"] ;
253 -> 254 ;
255 [label="gini = 0.0\nsamples = 1\nvalue = [0, 0, 0, 0, 0, 0, 1, 0, 0, 0, 0, 0]\nclass = Racing", fillcolor="#399de5"] ;
253 -> 255 ;
256 [label="gini = 0.0\nsamples = 2\nvalue = [0, 0, 0, 0, 2, 0, 0, 0, 0, 0, 0, 0]\nclass = Platform", fillcolor="#39e581"] ;
252 -> 256 ;
257 [label="gini = 0.0\nsamples = 2\nvalue = [0, 0, 0, 0, 0, 2, 0, 0, 0, 0, 0, 0]\nclass = Puzzle", fillcolor="#39e5d7"] ;
249 -> 257 ;
258 [label="Year <= 2002.5\ngini = 0.883\nsamples = 4528\nvalue = [780, 179, 246, 366, 402, 131, 591, 219, 456, 156\n853, 149]\nclass = Sports", fillcolor="#fefbfd"] ;
146 -> 258 ;
259 [label="NA_Sales <= 0.065\ngini = 0.874\nsamples = 1982\nvalue = [273, 80, 126, 115, 160, 64, 309, 75, 199, 57, 456\n68]\nclass = Sports", fillcolor="#fdeef6"] ;
258 -> 259 ;
260 [label="Year <= 1995.5\ngini = 0.894\nsamples = 610\nvalue = [76, 33, 35, 26, 44, 36, 83, 33, 70, 24, 113, 37]\nclass = Sports", fillcolor="#fef4f9"] ;
259 -> 260 ;
261 [label="NA_Sales <= 0.015\ngini = 0.841\nsamples = 37\nvalue = [2, 5, 6, 1, 1, 4, 1, 0, 11, 2, 2, 2]\nclass = Shooter", fillcolor="#ebdffb"] ;
260 -> 261 ;
262 [label="EU_Sales <= 0.005\ngini = 0.667\nsamples = 6\nvalue = [0, 3, 1, 1, 0, 0, 0, 0, 0, 0, 0, 1]\nclass = Adventure", fillcolor="#f5efb0"] ;
261 -> 262 ;
263 [label="Global_Sales <= 0.015\ngini = 0.75\nsamples = 4\nvalue = [0, 1, 1, 1, 0, 0, 0, 0, 0, 0, 0, 1]\nclass = Adventure", fillcolor="#ffffff"] ;
262 -> 263 ;
264 [label="Year <= 1993.0\ngini = 0.667\nsamples = 3\nvalue = [0, 1, 1, 0, 0, 0, 0, 0, 0, 0, 0, 1]\nclass = Adventure", fillcolor="#ffffff"] ;
263 -> 264 ;
265 [label="gini = 0.0\nsamples = 1\nvalue = [0, 0, 0, 0, 0, 0, 0, 0, 0, 0, 0, 1]\nclass = Strategy", fillcolor="#e53947"] ;
264 -> 265 ;
266 [label="Year <= 1994.5\ngini = 0.5\nsamples = 2\nvalue = [0, 1, 1, 0, 0, 0, 0, 0, 0, 0, 0, 0]\nclass = Adventure", fillcolor="#ffffff"] ;
264 -> 266 ;
267 [label="gini = 0.0\nsamples = 1\nvalue = [0, 0, 1, 0, 0, 0, 0, 0, 0, 0, 0, 0]\nclass = Fighting", fillcolor="#9de539"] ;
266 -> 267 ;
268 [label="gini = 0.0\nsamples = 1\nvalue = [0, 1, 0, 0, 0, 0, 0, 0, 0, 0, 0, 0]\nclass = Adventure", fillcolor="#e5d739"] ;
266 -> 268 ;
269 [label="gini = 0.0\nsamples = 1\nvalue = [0, 0, 0, 1, 0, 0, 0, 0, 0, 0, 0, 0]\nclass = Misc", fillcolor="#47e539"] ;
263 -> 269 ;
270 [label="gini = 0.0\nsamples = 2\nvalue = [0, 2, 0, 0, 0, 0, 0, 0, 0, 0, 0, 0]\nclass = Adventure", fillcolor="#e5d739"] ;
262 -> 270 ;
271 [label="Global_Sales <= 0.075\ngini = 0.812\nsamples = 31\nvalue = [2, 2, 5, 0, 1, 4, 1, 0, 11, 2, 2, 1]\nclass = Shooter", fillcolor="#e2d1f9"] ;
261 -> 271 ;
272 [label="Global_Sales <= 0.065\ngini = 0.716\nsamples = 18\nvalue = [0, 1, 3, 0, 1, 4, 1, 0, 8, 0, 0, 0]\nclass = Shooter", fillcolor="#dbc6f8"] ;
271 -> 272 ;
273 [label="Global_Sales <= 0.055\ngini = 0.764\nsamples = 15\nvalue = [0, 1, 3, 0, 1, 4, 1, 0, 5, 0, 0, 0]\nclass = Shooter", fillcolor="#f4edfd"] ;
272 -> 273 ;
274 [label="Global_Sales <= 0.045\ngini = 0.688\nsamples = 8\nvalue = [0, 0, 1, 0, 1, 1, 1, 0, 4, 0, 0, 0]\nclass = Shooter", fillcolor="#c9aaf4"] ;
273 -> 274 ;
275 [label="EU_Sales <= 0.005\ngini = 0.444\nsamples = 3\nvalue = [0, 0, 1, 0, 0, 0, 0, 0, 2, 0, 0, 0]\nclass = Shooter", fillcolor="#c09cf2"] ;
274 -> 275 ;
276 [label="gini = 0.0\nsamples = 1\nvalue = [0, 0, 0, 0, 0, 0, 0, 0, 1, 0, 0, 0]\nclass = Shooter", fillcolor="#8139e5"] ;
275 -> 276 ;
277 [label="EU_Sales <= 0.015\ngini = 0.5\nsamples = 2\nvalue = [0, 0, 1, 0, 0, 0, 0, 0, 1, 0, 0, 0]\nclass = Fighting", fillcolor="#ffffff"] ;
275 -> 277 ;
278 [label="gini = 0.0\nsamples = 1\nvalue = [0, 0, 1, 0, 0, 0, 0, 0, 0, 0, 0, 0]\nclass = Fighting", fillcolor="#9de539"] ;
277 -> 278 ;
279 [label="gini = 0.0\nsamples = 1\nvalue = [0, 0, 0, 0, 0, 0, 0, 0, 1, 0, 0, 0]\nclass = Shooter", fillcolor="#8139e5"] ;
277 -> 279 ;
280 [label="gini = 0.72\nsamples = 5\nvalue = [0, 0, 0, 0, 1, 1, 1, 0, 2, 0, 0, 0]\nclass = Shooter", fillcolor="#e0cef8"] ;
274 -> 280 ;
281 [label="NA_Sales <= 0.035\ngini = 0.694\nsamples = 7\nvalue = [0, 1, 2, 0, 0, 3, 0, 0, 1, 0, 0, 0]\nclass = Puzzle", fillcolor="#d7faf7"] ;
273 -> 281 ;
282 [label="gini = 0.444\nsamples = 3\nvalue = [0, 0, 2, 0, 0, 1, 0, 0, 0, 0, 0, 0]\nclass = Fighting", fillcolor="#cef29c"] ;
281 -> 282 ;
283 [label="EU_Sales <= 0.01\ngini = 0.625\nsamples = 4\nvalue = [0, 1, 0, 0, 0, 2, 0, 0, 1, 0, 0, 0]\nclass = Puzzle", fillcolor="#bdf6f2"] ;
281 -> 283 ;
284 [label="gini = 0.0\nsamples = 1\nvalue = [0, 0, 0, 0, 0, 1, 0, 0, 0, 0, 0, 0]\nclass = Puzzle", fillcolor="#39e5d7"] ;
283 -> 284 ;
285 [label="Year <= 1994.5\ngini = 0.667\nsamples = 3\nvalue = [0, 1, 0, 0, 0, 1, 0, 0, 1, 0, 0, 0]\nclass = Adventure", fillcolor="#ffffff"] ;
283 -> 285 ;
286 [label="gini = 0.0\nsamples = 1\nvalue = [0, 1, 0, 0, 0, 0, 0, 0, 0, 0, 0, 0]\nclass = Adventure", fillcolor="#e5d739"] ;
285 -> 286 ;
287 [label="gini = 0.5\nsamples = 2\nvalue = [0, 0, 0, 0, 0, 1, 0, 0, 1, 0, 0, 0]\nclass = Puzzle", fillcolor="#ffffff"] ;
285 -> 287 ;
288 [label="gini = 0.0\nsamples = 3\nvalue = [0, 0, 0, 0, 0, 0, 0, 0, 3, 0, 0, 0]\nclass = Shooter", fillcolor="#8139e5"] ;
272 -> 288 ;
289 [label="EU_Sales <= 1.415\ngini = 0.84\nsamples = 13\nvalue = [2, 1, 2, 0, 0, 0, 0, 0, 3, 2, 2, 1]\nclass = Shooter", fillcolor="#f4edfd"] ;
271 -> 289 ;
290 [label="NA_Sales <= 0.045\ngini = 0.819\nsamples = 12\nvalue = [2, 0, 2, 0, 0, 0, 0, 0, 3, 2, 2, 1]\nclass = Shooter", fillcolor="#f2ebfc"] ;
289 -> 290 ;
291 [label="Other_Sales <= 0.005\ngini = 0.625\nsamples = 4\nvalue = [0, 0, 0, 0, 0, 0, 0, 0, 1, 1, 2, 0]\nclass = Sports", fillcolor="#f6bdde"] ;
290 -> 291 ;
292 [label="gini = 0.0\nsamples = 1\nvalue = [0, 0, 0, 0, 0, 0, 0, 0, 0, 1, 0, 0]\nclass = Simulation", fillcolor="#d739e5"] ;
291 -> 292 ;
293 [label="gini = 0.444\nsamples = 3\nvalue = [0, 0, 0, 0, 0, 0, 0, 0, 1, 0, 2, 0]\nclass = Sports", fillcolor="#f29cce"] ;
291 -> 293 ;
294 [label="Global_Sales <= 0.085\ngini = 0.781\nsamples = 8\nvalue = [2, 0, 2, 0, 0, 0, 0, 0, 2, 1, 0, 1]\nclass = Action", fillcolor="#ffffff"] ;
290 -> 294 ;
295 [label="gini = 0.0\nsamples = 1\nvalue = [0, 0, 1, 0, 0, 0, 0, 0, 0, 0, 0, 0]\nclass = Fighting", fillcolor="#9de539"] ;
294 -> 295 ;
296 [label="NA_Sales <= 0.055\ngini = 0.776\nsamples = 7\nvalue = [2, 0, 1, 0, 0, 0, 0, 0, 2, 1, 0, 1]\nclass = Action", fillcolor="#ffffff"] ;
294 -> 296 ;
297 [label="EU_Sales <= 0.035\ngini = 0.667\nsamples = 3\nvalue = [1, 0, 0, 0, 0, 0, 0, 0, 0, 1, 0, 1]\nclass = Action", fillcolor="#ffffff"] ;
296 -> 297 ;
298 [label="gini = 0.0\nsamples = 1\nvalue = [1, 0, 0, 0, 0, 0, 0, 0, 0, 0, 0, 0]\nclass = Action", fillcolor="#e58139"] ;
297 -> 298 ;
299 [label="gini = 0.5\nsamples = 2\nvalue = [0, 0, 0, 0, 0, 0, 0, 0, 0, 1, 0, 1]\nclass = Simulation", fillcolor="#ffffff"] ;
297 -> 299 ;
300 [label="Global_Sales <= 0.105\ngini = 0.625\nsamples = 4\nvalue = [1, 0, 1, 0, 0, 0, 0, 0, 2, 0, 0, 0]\nclass = Shooter", fillcolor="#d5bdf6"] ;
296 -> 300 ;
301 [label="gini = 0.5\nsamples = 2\nvalue = [1, 0, 0, 0, 0, 0, 0, 0, 1, 0, 0, 0]\nclass = Action", fillcolor="#ffffff"] ;
300 -> 301 ;
302 [label="gini = 0.5\nsamples = 2\nvalue = [0, 0, 1, 0, 0, 0, 0, 0, 1, 0, 0, 0]\nclass = Fighting", fillcolor="#ffffff"] ;
300 -> 302 ;
303 [label="gini = 0.0\nsamples = 1\nvalue = [0, 1, 0, 0, 0, 0, 0, 0, 0, 0, 0, 0]\nclass = Adventure", fillcolor="#e5d739"] ;
289 -> 303 ;
304 [label="Global_Sales <= 0.085\ngini = 0.891\nsamples = 573\nvalue = [74, 28, 29, 25, 43, 32, 82, 33, 59, 22, 111, 35]\nclass = Sports", fillcolor="#fdf3f9"] ;
260 -> 304 ;
305 [label="EU_Sales <= 0.005\ngini = 0.884\nsamples = 470\nvalue = [65, 22, 23, 21, 40, 29, 63, 25, 47, 15, 101, 19]\nclass = Sports", fillcolor="#fdedf6"] ;
304 -> 305 ;
306 [label="Global_Sales <= 0.015\ngini = 0.819\nsamples = 51\nvalue = [5, 2, 3, 1, 3, 7, 6, 3, 0, 1, 18, 2]\nclass = Sports", fillcolor="#f8cee6"] ;
305 -> 306 ;
307 [label="Year <= 2001.5\ngini = 0.878\nsamples = 24\nvalue = [3, 2, 3, 0, 2, 4, 3, 1, 0, 1, 4, 1]\nclass = Puzzle", fillcolor="#ffffff"] ;
306 -> 307 ;
308 [label="Year <= 1999.5\ngini = 0.79\nsamples = 9\nvalue = [3, 0, 1, 0, 1, 1, 0, 0, 0, 0, 2, 1]\nclass = Action", fillcolor="#fbede3"] ;
307 -> 308 ;
309 [label="gini = 0.667\nsamples = 3\nvalue = [1, 0, 1, 0, 0, 0, 0, 0, 0, 0, 0, 1]\nclass = Action", fillcolor="#ffffff"] ;
308 -> 309 ;
310 [label="Year <= 2000.5\ngini = 0.722\nsamples = 6\nvalue = [2, 0, 0, 0, 1, 1, 0, 0, 0, 0, 2, 0]\nclass = Action", fillcolor="#ffffff"] ;
308 -> 310 ;
311 [label="gini = 0.5\nsamples = 2\nvalue = [0, 0, 0, 0, 0, 1, 0, 0, 0, 0, 1, 0]\nclass = Puzzle", fillcolor="#ffffff"] ;
310 -> 311 ;
312 [label="gini = 0.625\nsamples = 4\nvalue = [2, 0, 0, 0, 1, 0, 0, 0, 0, 0, 1, 0]\nclass = Action", fillcolor="#f6d5bd"] ;
310 -> 312 ;
313 [label="gini = 0.853\nsamples = 15\nvalue = [0, 2, 2, 0, 1, 3, 3, 1, 0, 1, 2, 0]\nclass = Puzzle", fillcolor="#ffffff"] ;
307 -> 313 ;
314 [label="NA_Sales <= 0.03\ngini = 0.691\nsamples = 27\nvalue = [2, 0, 0, 1, 1, 3, 3, 2, 0, 0, 14, 1]\nclass = Sports", fillcolor="#f3a4d2"] ;
306 -> 314 ;
315 [label="Year <= 2001.5\ngini = 0.74\nsamples = 24\nvalue = [2, 0, 0, 1, 1, 3, 3, 2, 0, 0, 11, 1]\nclass = Sports", fillcolor="#f5b4da"] ;
314 -> 315 ;
316 [label="Year <= 1999.5\ngini = 0.64\nsamples = 5\nvalue = [0, 0, 0, 0, 0, 2, 0, 2, 0, 0, 1, 0]\nclass = Puzzle", fillcolor="#ffffff"] ;
315 -> 316 ;
317 [label="gini = 0.0\nsamples = 1\nvalue = [0, 0, 0, 0, 0, 0, 0, 0, 0, 0, 1, 0]\nclass = Sports", fillcolor="#e5399d"] ;
316 -> 317 ;
318 [label="NA_Sales <= 0.015\ngini = 0.5\nsamples = 4\nvalue = [0, 0, 0, 0, 0, 2, 0, 2, 0, 0, 0, 0]\nclass = Puzzle", fillcolor="#ffffff"] ;
316 -> 318 ;
319 [label="gini = 0.444\nsamples = 3\nvalue = [0, 0, 0, 0, 0, 1, 0, 2, 0, 0, 0, 0]\nclass = Role-Playing", fillcolor="#9ca3f2"] ;
318 -> 319 ;
320 [label="gini = 0.0\nsamples = 1\nvalue = [0, 0, 0, 0, 0, 1, 0, 0, 0, 0, 0, 0]\nclass = Puzzle", fillcolor="#39e5d7"] ;
318 -> 320 ;
321 [label="NA_Sales <= 0.015\ngini = 0.676\nsamples = 19\nvalue = [2, 0, 0, 1, 1, 1, 3, 0, 0, 0, 10, 1]\nclass = Sports", fillcolor="#f4a8d4"] ;
315 -> 321 ;
322 [label="gini = 0.651\nsamples = 13\nvalue = [2, 0, 0, 1, 0, 0, 2, 0, 0, 0, 7, 1]\nclass = Sports", fillcolor="#f3a5d2"] ;
321 -> 322 ;
323 [label="gini = 0.667\nsamples = 6\nvalue = [0, 0, 0, 0, 1, 1, 1, 0, 0, 0, 3, 0]\nclass = Sports", fillcolor="#f5b0d8"] ;
321 -> 323 ;
324 [label="gini = 0.0\nsamples = 3\nvalue = [0, 0, 0, 0, 0, 0, 0, 0, 0, 0, 3, 0]\nclass = Sports", fillcolor="#e5399d"] ;
314 -> 324 ;
325 [label="Year <= 2001.5\ngini = 0.886\nsamples = 419\nvalue = [60, 20, 20, 20, 37, 22, 57, 22, 47, 14, 83, 17]\nclass = Sports", fillcolor="#fdf2f9"] ;
305 -> 325 ;
326 [label="NA_Sales <= 0.045\ngini = 0.892\nsamples = 256\nvalue = [40, 12, 13, 14, 21, 14, 31, 14, 35, 8, 42, 12]\nclass = Sports", fillcolor="#fffdfe"] ;
325 -> 326 ;
327 [label="Other_Sales <= 0.005\ngini = 0.892\nsamples = 219\nvalue = [39, 11, 12, 12, 17, 11, 21, 13, 29, 8, 35, 11]\nclass = Action", fillcolor="#fefcfb"] ;
326 -> 327 ;
328 [label="Year <= 2000.5\ngini = 0.891\nsamples = 188\nvalue = [35, 11, 12, 9, 13, 11, 19, 9, 22, 6, 30, 11]\nclass = Action", fillcolor="#fefbf9"] ;
327 -> 328 ;
329 [label="Year <= 1996.5\ngini = 0.894\nsamples = 153\nvalue = [26, 10, 11, 9, 9, 7, 16, 6, 20, 5, 23, 11]\nclass = Action", fillcolor="#fefcfa"] ;
328 -> 329 ;
330 [label="Global_Sales <= 0.025\ngini = 0.859\nsamples = 32\nvalue = [4, 4, 2, 1, 2, 0, 3, 2, 5, 1, 8, 0]\nclass = Sports", fillcolor="#fce9f4"] ;
329 -> 330 ;
331 [label="gini = 0.444\nsamples = 3\nvalue = [0, 2, 0, 0, 0, 0, 0, 1, 0, 0, 0, 0]\nclass = Adventure", fillcolor="#f2eb9c"] ;
330 -> 331 ;
332 [label="Global_Sales <= 0.045\ngini = 0.847\nsamples = 29\nvalue = [4, 2, 2, 1, 2, 0, 3, 1, 5, 1, 8, 0]\nclass = Sports", fillcolor="#fce6f3"] ;
330 -> 332 ;
333 [label="NA_Sales <= 0.015\ngini = 0.776\nsamples = 14\nvalue = [4, 0, 1, 1, 1, 0, 0, 0, 4, 0, 3, 0]\nclass = Action", fillcolor="#ffffff"] ;
332 -> 333 ;
334 [label="gini = 0.667\nsamples = 3\nvalue = [0, 0, 1, 0, 1, 0, 0, 0, 0, 0, 1, 0]\nclass = Fighting", fillcolor="#ffffff"] ;
333 -> 334 ;
335 [label="EU_Sales <= 0.015\ngini = 0.694\nsamples = 11\nvalue = [4, 0, 0, 1, 0, 0, 0, 0, 4, 0, 2, 0]\nclass = Action", fillcolor="#ffffff"] ;
333 -> 335 ;
336 [label="Global_Sales <= 0.035\ngini = 0.7\nsamples = 10\nvalue = [3, 0, 0, 1, 0, 0, 0, 0, 4, 0, 2, 0]\nclass = Shooter", fillcolor="#ede3fb"] ;
335 -> 336 ;
337 [label="gini = 0.612\nsamples = 7\nvalue = [3, 0, 0, 0, 0, 0, 0, 0, 3, 0, 1, 0]\nclass = Action", fillcolor="#ffffff"] ;
336 -> 337 ;
338 [label="gini = 0.667\nsamples = 3\nvalue = [0, 0, 0, 1, 0, 0, 0, 0, 1, 0, 1, 0]\nclass = Misc", fillcolor="#ffffff"] ;
336 -> 338 ;
339 [label="gini = 0.0\nsamples = 1\nvalue = [1, 0, 0, 0, 0, 0, 0, 0, 0, 0, 0, 0]\nclass = Action", fillcolor="#e58139"] ;
335 -> 339 ;
340 [label="Global_Sales <= 0.055\ngini = 0.809\nsamples = 15\nvalue = [0, 2, 1, 0, 1, 0, 3, 1, 1, 1, 5, 0]\nclass = Sports", fillcolor="#fbdeef"] ;
332 -> 340 ;
341 [label="gini = 0.5\nsamples = 4\nvalue = [0, 2, 0, 0, 0, 0, 0, 0, 0, 0, 2, 0]\nclass = Adventure", fillcolor="#ffffff"] ;
340 -> 341 ;
342 [label="EU_Sales <= 0.025\ngini = 0.81\nsamples = 11\nvalue = [0, 0, 1, 0, 1, 0, 3, 1, 1, 1, 3, 0]\nclass = Racing", fillcolor="#ffffff"] ;
340 -> 342 ;
343 [label="NA_Sales <= 0.035\ngini = 0.56\nsamples = 5\nvalue = [0, 0, 1, 0, 0, 0, 3, 0, 0, 0, 1, 0]\nclass = Racing", fillcolor="#9ccef2"] ;
342 -> 343 ;
344 [label="gini = 0.625\nsamples = 4\nvalue = [0, 0, 1, 0, 0, 0, 2, 0, 0, 0, 1, 0]\nclass = Racing", fillcolor="#bddef6"] ;
343 -> 344 ;
345 [label="gini = 0.0\nsamples = 1\nvalue = [0, 0, 0, 0, 0, 0, 1, 0, 0, 0, 0, 0]\nclass = Racing", fillcolor="#399de5"] ;
343 -> 345 ;
346 [label="gini = 0.778\nsamples = 6\nvalue = [0, 0, 0, 0, 1, 0, 0, 1, 1, 1, 2, 0]\nclass = Sports", fillcolor="#fad7eb"] ;
342 -> 346 ;
347 [label="Global_Sales <= 0.055\ngini = 0.895\nsamples = 121\nvalue = [22, 6, 9, 8, 7, 7, 13, 4, 15, 4, 15, 11]\nclass = Action", fillcolor="#fdf7f2"] ;
329 -> 347 ;
348 [label="NA_Sales <= 0.035\ngini = 0.901\nsamples = 87\nvalue = [12, 4, 7, 6, 6, 5, 10, 3, 9, 3, 12, 10]\nclass = Action", fillcolor="#ffffff"] ;
347 -> 348 ;
349 [label="NA_Sales <= 0.015\ngini = 0.897\nsamples = 81\nvalue = [12, 4, 5, 6, 4, 5, 10, 2, 9, 3, 11, 10]\nclass = Action", fillcolor="#fffdfc"] ;
348 -> 349 ;
350 [label="Year <= 1999.5\ngini = 0.848\nsamples = 25\nvalue = [5, 0, 3, 1, 0, 2, 3, 0, 6, 1, 3, 1]\nclass = Shooter", fillcolor="#f9f5fe"] ;
349 -> 350 ;
351 [label="Year <= 1998.5\ngini = 0.847\nsamples = 22\nvalue = [5, 0, 3, 1, 0, 2, 3, 0, 4, 1, 3, 0]\nclass = Action", fillcolor="#fef8f4"] ;
350 -> 351 ;
352 [label="Global_Sales <= 0.025\ngini = 0.806\nsamples = 14\nvalue = [4, 0, 1, 0, 0, 2, 2, 0, 2, 0, 3, 0]\nclass = Action", fillcolor="#fdf4ed"] ;
351 -> 352 ;
353 [label="Year <= 1997.5\ngini = 0.777\nsamples = 11\nvalue = [3, 0, 1, 0, 0, 2, 2, 0, 0, 0, 3, 0]\nclass = Action", fillcolor="#ffffff"] ;
352 -> 353 ;
354 [label="gini = 0.778\nsamples = 6\nvalue = [1, 0, 1, 0, 0, 1, 1, 0, 0, 0, 2, 0]\nclass = Sports", fillcolor="#fad7eb"] ;
353 -> 354 ;
355 [label="gini = 0.72\nsamples = 5\nvalue = [2, 0, 0, 0, 0, 1, 1, 0, 0, 0, 1, 0]\nclass = Action", fillcolor="#f8e0ce"] ;
353 -> 355 ;
356 [label="Year <= 1997.5\ngini = 0.444\nsamples = 3\nvalue = [1, 0, 0, 0, 0, 0, 0, 0, 2, 0, 0, 0]\nclass = Shooter", fillcolor="#c09cf2"] ;
352 -> 356 ;
357 [label="gini = 0.5\nsamples = 2\nvalue = [1, 0, 0, 0, 0, 0, 0, 0, 1, 0, 0, 0]\nclass = Action", fillcolor="#ffffff"] ;
356 -> 357 ;
358 [label="gini = 0.0\nsamples = 1\nvalue = [0, 0, 0, 0, 0, 0, 0, 0, 1, 0, 0, 0]\nclass = Shooter", fillcolor="#8139e5"] ;
356 -> 358 ;
359 [label="Global_Sales <= 0.025\ngini = 0.812\nsamples = 8\nvalue = [1, 0, 2, 1, 0, 0, 1, 0, 2, 1, 0, 0]\nclass = Fighting", fillcolor="#ffffff"] ;
351 -> 359 ;
360 [label="Global_Sales <= 0.015\ngini = 0.776\nsamples = 7\nvalue = [1, 0, 2, 1, 0, 0, 0, 0, 2, 1, 0, 0]\nclass = Fighting", fillcolor="#ffffff"] ;
359 -> 360 ;
361 [label="gini = 0.5\nsamples = 2\nvalue = [0, 0, 1, 0, 0, 0, 0, 0, 1, 0, 0, 0]\nclass = Fighting", fillcolor="#ffffff"] ;
360 -> 361 ;
362 [label="gini = 0.8\nsamples = 5\nvalue = [1, 0, 1, 1, 0, 0, 0, 0, 1, 1, 0, 0]\nclass = Action", fillcolor="#ffffff"] ;
360 -> 362 ;
363 [label="gini = 0.0\nsamples = 1\nvalue = [0, 0, 0, 0, 0, 0, 1, 0, 0, 0, 0, 0]\nclass = Racing", fillcolor="#399de5"] ;
359 -> 363 ;
364 [label="gini = 0.444\nsamples = 3\nvalue = [0, 0, 0, 0, 0, 0, 0, 0, 2, 0, 0, 1]\nclass = Shooter", fillcolor="#c09cf2"] ;
350 -> 364 ;
365 [label="EU_Sales <= 0.015\ngini = 0.895\nsamples = 56\nvalue = [7, 4, 2, 5, 4, 3, 7, 2, 3, 2, 8, 9]\nclass = Strategy", fillcolor="#fefbfb"] ;
349 -> 365 ;
366 [label="NA_Sales <= 0.025\ngini = 0.883\nsamples = 32\nvalue = [3, 3, 1, 3, 2, 2, 5, 2, 1, 1, 2, 7]\nclass = Strategy", fillcolor="#fdf0f1"] ;
365 -> 366 ;
367 [label="Global_Sales <= 0.035\ngini = 0.881\nsamples = 27\nvalue = [3, 3, 0, 3, 1, 2, 3, 2, 1, 1, 2, 6]\nclass = Strategy", fillcolor="#fce6e8"] ;
366 -> 367 ;
368 [label="Year <= 1998.5\ngini = 0.837\nsamples = 14\nvalue = [2, 2, 0, 2, 1, 0, 3, 0, 0, 0, 1, 3]\nclass = Racing", fillcolor="#ffffff"] ;
367 -> 368 ;
369 [label="Year <= 1997.5\ngini = 0.8\nsamples = 10\nvalue = [0, 1, 0, 2, 1, 0, 2, 0, 0, 0, 1, 3]\nclass = Strategy", fillcolor="#fce6e8"] ;
368 -> 369 ;
370 [label="gini = 0.667\nsamples = 3\nvalue = [0, 0, 0, 1, 0, 0, 1, 0, 0, 0, 0, 1]\nclass = Misc", fillcolor="#ffffff"] ;
369 -> 370 ;
371 [label="gini = 0.816\nsamples = 7\nvalue = [0, 1, 0, 1, 1, 0, 1, 0, 0, 0, 1, 2]\nclass = Strategy", fillcolor="#fbdee0"] ;
369 -> 371 ;
372 [label="Year <= 1999.5\ngini = 0.625\nsamples = 4\nvalue = [2, 1, 0, 0, 0, 0, 1, 0, 0, 0, 0, 0]\nclass = Action", fillcolor="#f6d5bd"] ;
368 -> 372 ;
373 [label="gini = 0.0\nsamples = 1\nvalue = [1, 0, 0, 0, 0, 0, 0, 0, 0, 0, 0, 0]\nclass = Action", fillcolor="#e58139"] ;
372 -> 373 ;
374 [label="gini = 0.667\nsamples = 3\nvalue = [1, 1, 0, 0, 0, 0, 1, 0, 0, 0, 0, 0]\nclass = Action", fillcolor="#ffffff"] ;
372 -> 374 ;
375 [label="Year <= 1997.5\ngini = 0.864\nsamples = 13\nvalue = [1, 1, 0, 1, 0, 2, 0, 2, 1, 1, 1, 3]\nclass = Strategy", fillcolor="#fdedee"] ;
367 -> 375 ;
376 [label="gini = 0.75\nsamples = 4\nvalue = [1, 0, 0, 0, 0, 0, 0, 0, 1, 1, 0, 1]\nclass = Action", fillcolor="#ffffff"] ;
375 -> 376 ;
377 [label="Year <= 1998.5\ngini = 0.815\nsamples = 9\nvalue = [0, 1, 0, 1, 0, 2, 0, 2, 0, 0, 1, 2]\nclass = Puzzle", fillcolor="#ffffff"] ;
375 -> 377 ;
378 [label="gini = 0.5\nsamples = 2\nvalue = [0, 0, 0, 0, 0, 0, 0, 1, 0, 0, 0, 1]\nclass = Role-Playing", fillcolor="#ffffff"] ;
377 -> 378 ;
379 [label="gini = 0.816\nsamples = 7\nvalue = [0, 1, 0, 1, 0, 2, 0, 1, 0, 0, 1, 1]\nclass = Puzzle", fillcolor="#defbf8"] ;
377 -> 379 ;
380 [label="Year <= 1998.5\ngini = 0.72\nsamples = 5\nvalue = [0, 0, 1, 0, 1, 0, 2, 0, 0, 0, 0, 1]\nclass = Racing", fillcolor="#cee6f8"] ;
366 -> 380 ;
381 [label="gini = 0.0\nsamples = 1\nvalue = [0, 0, 1, 0, 0, 0, 0, 0, 0, 0, 0, 0]\nclass = Fighting", fillcolor="#9de539"] ;
380 -> 381 ;
382 [label="Year <= 1999.5\ngini = 0.625\nsamples = 4\nvalue = [0, 0, 0, 0, 1, 0, 2, 0, 0, 0, 0, 1]\nclass = Racing", fillcolor="#bddef6"] ;
380 -> 382 ;
383 [label="gini = 0.444\nsamples = 3\nvalue = [0, 0, 0, 0, 0, 0, 2, 0, 0, 0, 0, 1]\nclass = Racing", fillcolor="#9ccef2"] ;
382 -> 383 ;
384 [label="gini = 0.0\nsamples = 1\nvalue = [0, 0, 0, 0, 1, 0, 0, 0, 0, 0, 0, 0]\nclass = Platform", fillcolor="#39e581"] ;
382 -> 384 ;
385 [label="Year <= 1997.5\ngini = 0.868\nsamples = 24\nvalue = [4, 1, 1, 2, 2, 1, 2, 0, 2, 1, 6, 2]\nclass = Sports", fillcolor="#fcebf5"] ;
365 -> 385 ;
386 [label="NA_Sales <= 0.025\ngini = 0.625\nsamples = 4\nvalue = [0, 0, 0, 1, 1, 0, 0, 0, 0, 0, 2, 0]\nclass = Sports", fillcolor="#f6bdde"] ;
385 -> 386 ;
387 [label="gini = 0.0\nsamples = 1\nvalue = [0, 0, 0, 1, 0, 0, 0, 0, 0, 0, 0, 0]\nclass = Misc", fillcolor="#47e539"] ;
386 -> 387 ;
388 [label="gini = 0.444\nsamples = 3\nvalue = [0, 0, 0, 0, 1, 0, 0, 0, 0, 0, 2, 0]\nclass = Sports", fillcolor="#f29cce"] ;
386 -> 388 ;
389 [label="Year <= 1999.5\ngini = 0.875\nsamples = 20\nvalue = [4, 1, 1, 1, 1, 1, 2, 0, 2, 1, 4, 2]\nclass = Action", fillcolor="#ffffff"] ;
385 -> 389 ;
390 [label="Year <= 1998.5\ngini = 0.852\nsamples = 16\nvalue = [4, 1, 1, 0, 1, 1, 1, 0, 2, 0, 3, 2]\nclass = Action", fillcolor="#fdf5f0"] ;
389 -> 390 ;
391 [label="Global_Sales <= 0.045\ngini = 0.781\nsamples = 8\nvalue = [2, 0, 0, 0, 1, 0, 0, 0, 2, 0, 2, 1]\nclass = Action", fillcolor="#ffffff"] ;
390 -> 391 ;
392 [label="gini = 0.667\nsamples = 3\nvalue = [1, 0, 0, 0, 0, 0, 0, 0, 1, 0, 1, 0]\nclass = Action", fillcolor="#ffffff"] ;
391 -> 392 ;
393 [label="gini = 0.8\nsamples = 5\nvalue = [1, 0, 0, 0, 1, 0, 0, 0, 1, 0, 1, 1]\nclass = Action", fillcolor="#ffffff"] ;
391 -> 393 ;
394 [label="Global_Sales <= 0.045\ngini = 0.844\nsamples = 8\nvalue = [2, 1, 1, 0, 0, 1, 1, 0, 0, 0, 1, 1]\nclass = Action", fillcolor="#fbede3"] ;
390 -> 394 ;
395 [label="gini = 0.0\nsamples = 1\nvalue = [0, 0, 0, 0, 0, 1, 0, 0, 0, 0, 0, 0]\nclass = Puzzle", fillcolor="#39e5d7"] ;
394 -> 395 ;
396 [label="gini = 0.816\nsamples = 7\nvalue = [2, 1, 1, 0, 0, 0, 1, 0, 0, 0, 1, 1]\nclass = Action", fillcolor="#fbeade"] ;
394 -> 396 ;
397 [label="NA_Sales <= 0.025\ngini = 0.75\nsamples = 4\nvalue = [0, 0, 0, 1, 0, 0, 1, 0, 0, 1, 1, 0]\nclass = Misc", fillcolor="#ffffff"] ;
389 -> 397 ;
398 [label="gini = 0.0\nsamples = 1\nvalue = [0, 0, 0, 0, 0, 0, 0, 0, 0, 1, 0, 0]\nclass = Simulation", fillcolor="#d739e5"] ;
397 -> 398 ;
399 [label="gini = 0.667\nsamples = 3\nvalue = [0, 0, 0, 1, 0, 0, 1, 0, 0, 0, 1, 0]\nclass = Misc", fillcolor="#ffffff"] ;
397 -> 399 ;
400 [label="Year <= 1999.5\ngini = 0.722\nsamples = 6\nvalue = [0, 0, 2, 0, 2, 0, 0, 1, 0, 0, 1, 0]\nclass = Fighting", fillcolor="#ffffff"] ;
348 -> 400 ;
401 [label="Year <= 1997.5\ngini = 0.625\nsamples = 4\nvalue = [0, 0, 2, 0, 1, 0, 0, 0, 0, 0, 1, 0]\nclass = Fighting", fillcolor="#def6bd"] ;
400 -> 401 ;
402 [label="gini = 0.0\nsamples = 1\nvalue = [0, 0, 1, 0, 0, 0, 0, 0, 0, 0, 0, 0]\nclass = Fighting", fillcolor="#9de539"] ;
401 -> 402 ;
403 [label="Year <= 1998.5\ngini = 0.667\nsamples = 3\nvalue = [0, 0, 1, 0, 1, 0, 0, 0, 0, 0, 1, 0]\nclass = Fighting", fillcolor="#ffffff"] ;
401 -> 403 ;
404 [label="gini = 0.0\nsamples = 1\nvalue = [0, 0, 0, 0, 1, 0, 0, 0, 0, 0, 0, 0]\nclass = Platform", fillcolor="#39e581"] ;
403 -> 404 ;
405 [label="gini = 0.5\nsamples = 2\nvalue = [0, 0, 1, 0, 0, 0, 0, 0, 0, 0, 1, 0]\nclass = Fighting", fillcolor="#ffffff"] ;
403 -> 405 ;
406 [label="gini = 0.5\nsamples = 2\nvalue = [0, 0, 0, 0, 1, 0, 0, 1, 0, 0, 0, 0]\nclass = Platform", fillcolor="#ffffff"] ;
400 -> 406 ;
407 [label="NA_Sales <= 0.035\ngini = 0.849\nsamples = 34\nvalue = [10, 2, 2, 2, 1, 2, 3, 1, 6, 1, 3, 1]\nclass = Action", fillcolor="#fbede3"] ;
347 -> 407 ;
408 [label="Year <= 1998.0\ngini = 0.74\nsamples = 10\nvalue = [4, 2, 0, 0, 0, 0, 1, 0, 1, 0, 2, 0]\nclass = Action", fillcolor="#f8e0ce"] ;
407 -> 408 ;
409 [label="gini = 0.667\nsamples = 3\nvalue = [1, 1, 0, 0, 0, 0, 0, 0, 1, 0, 0, 0]\nclass = Action", fillcolor="#ffffff"] ;
408 -> 409 ;
410 [label="Year <= 1999.5\ngini = 0.694\nsamples = 7\nvalue = [3, 1, 0, 0, 0, 0, 1, 0, 0, 0, 2, 0]\nclass = Action", fillcolor="#fae6d7"] ;
408 -> 410 ;
411 [label="gini = 0.667\nsamples = 3\nvalue = [1, 0, 0, 0, 0, 0, 1, 0, 0, 0, 1, 0]\nclass = Action", fillcolor="#ffffff"] ;
410 -> 411 ;
412 [label="gini = 0.625\nsamples = 4\nvalue = [2, 1, 0, 0, 0, 0, 0, 0, 0, 0, 1, 0]\nclass = Action", fillcolor="#f6d5bd"] ;
410 -> 412 ;
413 [label="EU_Sales <= 0.025\ngini = 0.858\nsamples = 24\nvalue = [6, 0, 2, 2, 1, 2, 2, 1, 5, 1, 1, 1]\nclass = Action", fillcolor="#fef8f5"] ;
407 -> 413 ;
414 [label="Year <= 1997.5\ngini = 0.625\nsamples = 4\nvalue = [0, 0, 0, 0, 1, 0, 1, 0, 2, 0, 0, 0]\nclass = Shooter", fillcolor="#d5bdf6"] ;
413 -> 414 ;
415 [label="Global_Sales <= 0.065\ngini = 0.5\nsamples = 2\nvalue = [0, 0, 0, 0, 1, 0, 1, 0, 0, 0, 0, 0]\nclass = Platform", fillcolor="#ffffff"] ;
414 -> 415 ;
416 [label="gini = 0.0\nsamples = 1\nvalue = [0, 0, 0, 0, 0, 0, 1, 0, 0, 0, 0, 0]\nclass = Racing", fillcolor="#399de5"] ;
415 -> 416 ;
417 [label="gini = 0.0\nsamples = 1\nvalue = [0, 0, 0, 0, 1, 0, 0, 0, 0, 0, 0, 0]\nclass = Platform", fillcolor="#39e581"] ;
415 -> 417 ;
418 [label="gini = 0.0\nsamples = 2\nvalue = [0, 0, 0, 0, 0, 0, 0, 0, 2, 0, 0, 0]\nclass = Shooter", fillcolor="#8139e5"] ;
414 -> 418 ;
419 [label="Year <= 1997.5\ngini = 0.845\nsamples = 20\nvalue = [6, 0, 2, 2, 0, 2, 1, 1, 3, 1, 1, 1]\nclass = Action", fillcolor="#fae9dc"] ;
413 -> 419 ;
420 [label="gini = 0.722\nsamples = 6\nvalue = [2, 0, 0, 0, 0, 1, 0, 0, 2, 1, 0, 0]\nclass = Action", fillcolor="#ffffff"] ;
419 -> 420 ;
421 [label="Global_Sales <= 0.075\ngini = 0.847\nsamples = 14\nvalue = [4, 0, 2, 2, 0, 1, 1, 1, 1, 0, 1, 1]\nclass = Action", fillcolor="#fbeade"] ;
419 -> 421 ;
422 [label="Year <= 1998.5\ngini = 0.843\nsamples = 11\nvalue = [3, 0, 2, 1, 0, 1, 1, 1, 0, 0, 1, 1]\nclass = Action", fillcolor="#fcf1e9"] ;
421 -> 422 ;
423 [label="gini = 0.816\nsamples = 7\nvalue = [2, 0, 1, 0, 0, 1, 1, 0, 0, 0, 1, 1]\nclass = Action", fillcolor="#fbeade"] ;
422 -> 423 ;
424 [label="Year <= 1999.5\ngini = 0.75\nsamples = 4\nvalue = [1, 0, 1, 1, 0, 0, 0, 1, 0, 0, 0, 0]\nclass = Action", fillcolor="#ffffff"] ;
422 -> 424 ;
425 [label="gini = 0.0\nsamples = 1\nvalue = [0, 0, 0, 0, 0, 0, 0, 1, 0, 0, 0, 0]\nclass = Role-Playing", fillcolor="#3947e5"] ;
424 -> 425 ;
426 [label="gini = 0.667\nsamples = 3\nvalue = [1, 0, 1, 1, 0, 0, 0, 0, 0, 0, 0, 0]\nclass = Action", fillcolor="#ffffff"] ;
424 -> 426 ;
427 [label="Year <= 1999.0\ngini = 0.667\nsamples = 3\nvalue = [1, 0, 0, 1, 0, 0, 0, 0, 1, 0, 0, 0]\nclass = Action", fillcolor="#ffffff"] ;
421 -> 427 ;
428 [label="gini = 0.5\nsamples = 2\nvalue = [1, 0, 0, 1, 0, 0, 0, 0, 0, 0, 0, 0]\nclass = Action", fillcolor="#ffffff"] ;
427 -> 428 ;
429 [label="gini = 0.0\nsamples = 1\nvalue = [0, 0, 0, 0, 0, 0, 0, 0, 1, 0, 0, 0]\nclass = Shooter", fillcolor="#8139e5"] ;
427 -> 429 ;
430 [label="Global_Sales <= 0.045\ngini = 0.847\nsamples = 35\nvalue = [9, 1, 1, 0, 4, 4, 3, 3, 2, 1, 7, 0]\nclass = Action", fillcolor="#fdf6f1"] ;
328 -> 430 ;
431 [label="NA_Sales <= 0.025\ngini = 0.765\nsamples = 19\nvalue = [8, 1, 1, 0, 3, 1, 2, 1, 0, 0, 2, 0]\nclass = Action", fillcolor="#f7d8c1"] ;
430 -> 431 ;
432 [label="NA_Sales <= 0.015\ngini = 0.8\nsamples = 15\nvalue = [5, 1, 1, 0, 3, 0, 2, 1, 0, 0, 2, 0]\nclass = Action", fillcolor="#fbeade"] ;
431 -> 432 ;
433 [label="gini = 0.75\nsamples = 4\nvalue = [1, 0, 1, 0, 1, 0, 0, 1, 0, 0, 0, 0]\nclass = Action", fillcolor="#ffffff"] ;
432 -> 433 ;
434 [label="Global_Sales <= 0.035\ngini = 0.76\nsamples = 11\nvalue = [4, 1, 0, 0, 2, 0, 2, 0, 0, 0, 2, 0]\nclass = Action", fillcolor="#f9e3d3"] ;
432 -> 434 ;
435 [label="gini = 0.694\nsamples = 7\nvalue = [3, 0, 0, 0, 1, 0, 2, 0, 0, 0, 1, 0]\nclass = Action", fillcolor="#fae6d7"] ;
434 -> 435 ;
436 [label="EU_Sales <= 0.015\ngini = 0.75\nsamples = 4\nvalue = [1, 1, 0, 0, 1, 0, 0, 0, 0, 0, 1, 0]\nclass = Action", fillcolor="#ffffff"] ;
434 -> 436 ;
437 [label="gini = 0.5\nsamples = 2\nvalue = [0, 1, 0, 0, 1, 0, 0, 0, 0, 0, 0, 0]\nclass = Adventure", fillcolor="#ffffff"] ;
436 -> 437 ;
438 [label="gini = 0.5\nsamples = 2\nvalue = [1, 0, 0, 0, 0, 0, 0, 0, 0, 0, 1, 0]\nclass = Action", fillcolor="#ffffff"] ;
436 -> 438 ;
439 [label="Global_Sales <= 0.035\ngini = 0.375\nsamples = 4\nvalue = [3, 0, 0, 0, 0, 1, 0, 0, 0, 0, 0, 0]\nclass = Action", fillcolor="#eeab7b"] ;
431 -> 439 ;
440 [label="gini = 0.0\nsamples = 1\nvalue = [1, 0, 0, 0, 0, 0, 0, 0, 0, 0, 0, 0]\nclass = Action", fillcolor="#e58139"] ;
439 -> 440 ;
441 [label="gini = 0.444\nsamples = 3\nvalue = [2, 0, 0, 0, 0, 1, 0, 0, 0, 0, 0, 0]\nclass = Action", fillcolor="#f2c09c"] ;
439 -> 441 ;
442 [label="EU_Sales <= 0.015\ngini = 0.82\nsamples = 16\nvalue = [1, 0, 0, 0, 1, 3, 1, 2, 2, 1, 5, 0]\nclass = Sports", fillcolor="#fbe1f0"] ;
430 -> 442 ;
443 [label="NA_Sales <= 0.035\ngini = 0.48\nsamples = 5\nvalue = [0, 0, 0, 0, 0, 2, 0, 0, 0, 0, 3, 0]\nclass = Sports", fillcolor="#f6bdde"] ;
442 -> 443 ;
444 [label="gini = 0.444\nsamples = 3\nvalue = [0, 0, 0, 0, 0, 1, 0, 0, 0, 0, 2, 0]\nclass = Sports", fillcolor="#f29cce"] ;
443 -> 444 ;
445 [label="gini = 0.5\nsamples = 2\nvalue = [0, 0, 0, 0, 0, 1, 0, 0, 0, 0, 1, 0]\nclass = Puzzle", fillcolor="#ffffff"] ;
443 -> 445 ;
446 [label="Global_Sales <= 0.065\ngini = 0.86\nsamples = 11\nvalue = [1, 0, 0, 0, 1, 1, 1, 2, 2, 1, 2, 0]\nclass = Role-Playing", fillcolor="#ffffff"] ;
442 -> 446 ;
447 [label="NA_Sales <= 0.035\ngini = 0.84\nsamples = 9\nvalue = [0, 0, 0, 0, 1, 1, 1, 2, 2, 1, 1, 0]\nclass = Role-Playing", fillcolor="#ffffff"] ;
446 -> 447 ;
448 [label="Global_Sales <= 0.055\ngini = 0.778\nsamples = 6\nvalue = [0, 0, 0, 0, 0, 1, 1, 1, 2, 0, 1, 0]\nclass = Shooter", fillcolor="#e6d7fa"] ;
447 -> 448 ;
449 [label="gini = 0.75\nsamples = 4\nvalue = [0, 0, 0, 0, 0, 1, 1, 1, 1, 0, 0, 0]\nclass = Puzzle", fillcolor="#ffffff"] ;
448 -> 449 ;
450 [label="gini = 0.5\nsamples = 2\nvalue = [0, 0, 0, 0, 0, 0, 0, 0, 1, 0, 1, 0]\nclass = Shooter", fillcolor="#ffffff"] ;
448 -> 450 ;
451 [label="gini = 0.667\nsamples = 3\nvalue = [0, 0, 0, 0, 1, 0, 0, 1, 0, 1, 0, 0]\nclass = Platform", fillcolor="#ffffff"] ;
447 -> 451 ;
452 [label="EU_Sales <= 0.025\ngini = 0.5\nsamples = 2\nvalue = [1, 0, 0, 0, 0, 0, 0, 0, 0, 0, 1, 0]\nclass = Action", fillcolor="#ffffff"] ;
446 -> 452 ;
453 [label="gini = 0.0\nsamples = 1\nvalue = [1, 0, 0, 0, 0, 0, 0, 0, 0, 0, 0, 0]\nclass = Action", fillcolor="#e58139"] ;
452 -> 453 ;
454 [label="gini = 0.0\nsamples = 1\nvalue = [0, 0, 0, 0, 0, 0, 0, 0, 0, 0, 1, 0]\nclass = Sports", fillcolor="#e5399d"] ;
452 -> 454 ;
455 [label="Year <= 1999.5\ngini = 0.855\nsamples = 31\nvalue = [4, 0, 0, 3, 4, 0, 2, 4, 7, 2, 5, 0]\nclass = Shooter", fillcolor="#f5f0fd"] ;
327 -> 455 ;
456 [label="Year <= 1996.5\ngini = 0.722\nsamples = 6\nvalue = [2, 0, 0, 0, 1, 0, 0, 2, 0, 1, 0, 0]\nclass = Action", fillcolor="#ffffff"] ;
455 -> 456 ;
457 [label="gini = 0.0\nsamples = 1\nvalue = [0, 0, 0, 0, 1, 0, 0, 0, 0, 0, 0, 0]\nclass = Platform", fillcolor="#39e581"] ;
456 -> 457 ;
458 [label="NA_Sales <= 0.025\ngini = 0.64\nsamples = 5\nvalue = [2, 0, 0, 0, 0, 0, 0, 2, 0, 1, 0, 0]\nclass = Action", fillcolor="#ffffff"] ;
456 -> 458 ;
459 [label="gini = 0.0\nsamples = 1\nvalue = [0, 0, 0, 0, 0, 0, 0, 1, 0, 0, 0, 0]\nclass = Role-Playing", fillcolor="#3947e5"] ;
458 -> 459 ;
460 [label="Year <= 1997.5\ngini = 0.625\nsamples = 4\nvalue = [2, 0, 0, 0, 0, 0, 0, 1, 0, 1, 0, 0]\nclass = Action", fillcolor="#f6d5bd"] ;
458 -> 460 ;
461 [label="gini = 0.0\nsamples = 1\nvalue = [0, 0, 0, 0, 0, 0, 0, 1, 0, 0, 0, 0]\nclass = Role-Playing", fillcolor="#3947e5"] ;
460 -> 461 ;
462 [label="Year <= 1998.5\ngini = 0.444\nsamples = 3\nvalue = [2, 0, 0, 0, 0, 0, 0, 0, 0, 1, 0, 0]\nclass = Action", fillcolor="#f2c09c"] ;
460 -> 462 ;
463 [label="gini = 0.5\nsamples = 2\nvalue = [1, 0, 0, 0, 0, 0, 0, 0, 0, 1, 0, 0]\nclass = Action", fillcolor="#ffffff"] ;
462 -> 463 ;
464 [label="gini = 0.0\nsamples = 1\nvalue = [1, 0, 0, 0, 0, 0, 0, 0, 0, 0, 0, 0]\nclass = Action", fillcolor="#e58139"] ;
462 -> 464 ;
465 [label="NA_Sales <= 0.015\ngini = 0.832\nsamples = 25\nvalue = [2, 0, 0, 3, 3, 0, 2, 2, 7, 1, 5, 0]\nclass = Shooter", fillcolor="#f2ebfc"] ;
455 -> 465 ;
466 [label="Global_Sales <= 0.055\ngini = 0.5\nsamples = 2\nvalue = [1, 0, 0, 0, 0, 0, 0, 0, 0, 1, 0, 0]\nclass = Action", fillcolor="#ffffff"] ;
465 -> 466 ;
467 [label="gini = 0.0\nsamples = 1\nvalue = [0, 0, 0, 0, 0, 0, 0, 0, 0, 1, 0, 0]\nclass = Simulation", fillcolor="#d739e5"] ;
466 -> 467 ;
468 [label="gini = 0.0\nsamples = 1\nvalue = [1, 0, 0, 0, 0, 0, 0, 0, 0, 0, 0, 0]\nclass = Action", fillcolor="#e58139"] ;
466 -> 468 ;
469 [label="NA_Sales <= 0.025\ngini = 0.809\nsamples = 23\nvalue = [1, 0, 0, 3, 3, 0, 2, 2, 7, 0, 5, 0]\nclass = Shooter", fillcolor="#f1e9fc"] ;
465 -> 469 ;
470 [label="Global_Sales <= 0.045\ngini = 0.776\nsamples = 7\nvalue = [0, 0, 0, 2, 2, 0, 1, 0, 1, 0, 1, 0]\nclass = Misc", fillcolor="#ffffff"] ;
469 -> 470 ;
471 [label="Year <= 2000.5\ngini = 0.5\nsamples = 2\nvalue = [0, 0, 0, 1, 0, 0, 0, 0, 1, 0, 0, 0]\nclass = Misc", fillcolor="#ffffff"] ;
470 -> 471 ;
472 [label="gini = 0.0\nsamples = 1\nvalue = [0, 0, 0, 1, 0, 0, 0, 0, 0, 0, 0, 0]\nclass = Misc", fillcolor="#47e539"] ;
471 -> 472 ;
473 [label="gini = 0.0\nsamples = 1\nvalue = [0, 0, 0, 0, 0, 0, 0, 0, 1, 0, 0, 0]\nclass = Shooter", fillcolor="#8139e5"] ;
471 -> 473 ;
474 [label="gini = 0.72\nsamples = 5\nvalue = [0, 0, 0, 1, 2, 0, 1, 0, 0, 0, 1, 0]\nclass = Platform", fillcolor="#cef8e0"] ;
470 -> 474 ;
475 [label="NA_Sales <= 0.035\ngini = 0.766\nsamples = 16\nvalue = [1, 0, 0, 1, 1, 0, 1, 2, 6, 0, 4, 0]\nclass = Shooter", fillcolor="#eadefb"] ;
469 -> 475 ;
476 [label="Year <= 2000.5\ngini = 0.571\nsamples = 7\nvalue = [0, 0, 0, 1, 0, 0, 0, 0, 4, 0, 2, 0]\nclass = Shooter", fillcolor="#cdb0f5"] ;
475 -> 476 ;
477 [label="gini = 0.0\nsamples = 1\nvalue = [0, 0, 0, 0, 0, 0, 0, 0, 1, 0, 0, 0]\nclass = Shooter", fillcolor="#8139e5"] ;
476 -> 477 ;
478 [label="Global_Sales <= 0.065\ngini = 0.611\nsamples = 6\nvalue = [0, 0, 0, 1, 0, 0, 0, 0, 3, 0, 2, 0]\nclass = Shooter", fillcolor="#e0cef8"] ;
476 -> 478 ;
479 [label="Global_Sales <= 0.055\ngini = 0.56\nsamples = 5\nvalue = [0, 0, 0, 1, 0, 0, 0, 0, 3, 0, 1, 0]\nclass = Shooter", fillcolor="#c09cf2"] ;
478 -> 479 ;
480 [label="gini = 0.5\nsamples = 2\nvalue = [0, 0, 0, 0, 0, 0, 0, 0, 1, 0, 1, 0]\nclass = Shooter", fillcolor="#ffffff"] ;
479 -> 480 ;
481 [label="gini = 0.444\nsamples = 3\nvalue = [0, 0, 0, 1, 0, 0, 0, 0, 2, 0, 0, 0]\nclass = Shooter", fillcolor="#c09cf2"] ;
479 -> 481 ;
482 [label="gini = 0.0\nsamples = 1\nvalue = [0, 0, 0, 0, 0, 0, 0, 0, 0, 0, 1, 0]\nclass = Sports", fillcolor="#e5399d"] ;
478 -> 482 ;
483 [label="Global_Sales <= 0.075\ngini = 0.815\nsamples = 9\nvalue = [1, 0, 0, 0, 1, 0, 1, 2, 2, 0, 2, 0]\nclass = Role-Playing", fillcolor="#ffffff"] ;
475 -> 483 ;
484 [label="gini = 0.0\nsamples = 1\nvalue = [1, 0, 0, 0, 0, 0, 0, 0, 0, 0, 0, 0]\nclass = Action", fillcolor="#e58139"] ;
483 -> 484 ;
485 [label="Year <= 2000.5\ngini = 0.781\nsamples = 8\nvalue = [0, 0, 0, 0, 1, 0, 1, 2, 2, 0, 2, 0]\nclass = Role-Playing", fillcolor="#ffffff"] ;
483 -> 485 ;
486 [label="gini = 0.75\nsamples = 4\nvalue = [0, 0, 0, 0, 1, 0, 1, 1, 1, 0, 0, 0]\nclass = Platform", fillcolor="#ffffff"] ;
485 -> 486 ;
487 [label="gini = 0.625\nsamples = 4\nvalue = [0, 0, 0, 0, 0, 0, 0, 1, 1, 0, 2, 0]\nclass = Sports", fillcolor="#f6bdde"] ;
485 -> 487 ;
488 [label="Global_Sales <= 0.065\ngini = 0.84\nsamples = 37\nvalue = [1, 1, 1, 2, 4, 3, 10, 1, 6, 0, 7, 1]\nclass = Racing", fillcolor="#ebf5fc"] ;
326 -> 488 ;
489 [label="Year <= 2000.5\ngini = 0.711\nsamples = 15\nvalue = [1, 0, 0, 1, 0, 1, 6, 0, 1, 0, 5, 0]\nclass = Racing", fillcolor="#ebf5fc"] ;
488 -> 489 ;
490 [label="EU_Sales <= 0.015\ngini = 0.694\nsamples = 12\nvalue = [0, 0, 0, 1, 0, 1, 4, 0, 1, 0, 5, 0]\nclass = Sports", fillcolor="#fce6f3"] ;
489 -> 490 ;
491 [label="Year <= 1998.5\ngini = 0.711\nsamples = 11\nvalue = [0, 0, 0, 1, 0, 1, 4, 0, 1, 0, 4, 0]\nclass = Racing", fillcolor="#ffffff"] ;
490 -> 491 ;
492 [label="gini = 0.776\nsamples = 7\nvalue = [0, 0, 0, 1, 0, 1, 2, 0, 1, 0, 2, 0]\nclass = Racing", fillcolor="#ffffff"] ;
491 -> 492 ;
493 [label="Year <= 1999.5\ngini = 0.5\nsamples = 4\nvalue = [0, 0, 0, 0, 0, 0, 2, 0, 0, 0, 2, 0]\nclass = Racing", fillcolor="#ffffff"] ;
491 -> 493 ;
494 [label="gini = 0.5\nsamples = 2\nvalue = [0, 0, 0, 0, 0, 0, 1, 0, 0, 0, 1, 0]\nclass = Racing", fillcolor="#ffffff"] ;
493 -> 494 ;
495 [label="gini = 0.5\nsamples = 2\nvalue = [0, 0, 0, 0, 0, 0, 1, 0, 0, 0, 1, 0]\nclass = Racing", fillcolor="#ffffff"] ;
493 -> 495 ;
496 [label="gini = 0.0\nsamples = 1\nvalue = [0, 0, 0, 0, 0, 0, 0, 0, 0, 0, 1, 0]\nclass = Sports", fillcolor="#e5399d"] ;
490 -> 496 ;
497 [label="EU_Sales <= 0.015\ngini = 0.444\nsamples = 3\nvalue = [1, 0, 0, 0, 0, 0, 2, 0, 0, 0, 0, 0]\nclass = Racing", fillcolor="#9ccef2"] ;
489 -> 497 ;
498 [label="gini = 0.5\nsamples = 2\nvalue = [1, 0, 0, 0, 0, 0, 1, 0, 0, 0, 0, 0]\nclass = Action", fillcolor="#ffffff"] ;
497 -> 498 ;
499 [label="gini = 0.0\nsamples = 1\nvalue = [0, 0, 0, 0, 0, 0, 1, 0, 0, 0, 0, 0]\nclass = Racing", fillcolor="#399de5"] ;
497 -> 499 ;
500 [label="Year <= 1998.5\ngini = 0.855\nsamples = 22\nvalue = [0, 1, 1, 1, 4, 2, 4, 1, 5, 0, 2, 1]\nclass = Shooter", fillcolor="#f8f4fe"] ;
488 -> 500 ;
501 [label="Year <= 1996.5\ngini = 0.691\nsamples = 9\nvalue = [0, 0, 0, 0, 1, 2, 4, 0, 2, 0, 0, 0]\nclass = Racing", fillcolor="#c6e3f8"] ;
500 -> 501 ;
502 [label="gini = 0.5\nsamples = 2\nvalue = [0, 0, 0, 0, 1, 0, 0, 0, 1, 0, 0, 0]\nclass = Platform", fillcolor="#ffffff"] ;
501 -> 502 ;
503 [label="EU_Sales <= 0.025\ngini = 0.571\nsamples = 7\nvalue = [0, 0, 0, 0, 0, 2, 4, 0, 1, 0, 0, 0]\nclass = Racing", fillcolor="#b0d8f5"] ;
501 -> 503 ;
504 [label="Global_Sales <= 0.075\ngini = 0.64\nsamples = 5\nvalue = [0, 0, 0, 0, 0, 2, 2, 0, 1, 0, 0, 0]\nclass = Puzzle", fillcolor="#ffffff"] ;
503 -> 504 ;
505 [label="gini = 0.0\nsamples = 1\nvalue = [0, 0, 0, 0, 0, 0, 1, 0, 0, 0, 0, 0]\nclass = Racing", fillcolor="#399de5"] ;
504 -> 505 ;
506 [label="Year <= 1997.5\ngini = 0.625\nsamples = 4\nvalue = [0, 0, 0, 0, 0, 2, 1, 0, 1, 0, 0, 0]\nclass = Puzzle", fillcolor="#bdf6f2"] ;
504 -> 506 ;
507 [label="gini = 0.0\nsamples = 1\nvalue = [0, 0, 0, 0, 0, 1, 0, 0, 0, 0, 0, 0]\nclass = Puzzle", fillcolor="#39e5d7"] ;
506 -> 507 ;
508 [label="gini = 0.667\nsamples = 3\nvalue = [0, 0, 0, 0, 0, 1, 1, 0, 1, 0, 0, 0]\nclass = Puzzle", fillcolor="#ffffff"] ;
506 -> 508 ;
509 [label="gini = 0.0\nsamples = 2\nvalue = [0, 0, 0, 0, 0, 0, 2, 0, 0, 0, 0, 0]\nclass = Racing", fillcolor="#399de5"] ;
503 -> 509 ;
510 [label="Year <= 1999.5\ngini = 0.84\nsamples = 13\nvalue = [0, 1, 1, 1, 3, 0, 0, 1, 3, 0, 2, 1]\nclass = Platform", fillcolor="#ffffff"] ;
500 -> 510 ;
511 [label="Other_Sales <= 0.005\ngini = 0.667\nsamples = 3\nvalue = [0, 1, 1, 0, 0, 0, 0, 1, 0, 0, 0, 0]\nclass = Adventure", fillcolor="#ffffff"] ;
510 -> 511 ;
512 [label="gini = 0.0\nsamples = 1\nvalue = [0, 1, 0, 0, 0, 0, 0, 0, 0, 0, 0, 0]\nclass = Adventure", fillcolor="#e5d739"] ;
511 -> 512 ;
513 [label="gini = 0.5\nsamples = 2\nvalue = [0, 0, 1, 0, 0, 0, 0, 1, 0, 0, 0, 0]\nclass = Fighting", fillcolor="#ffffff"] ;
511 -> 513 ;
514 [label="EU_Sales <= 0.015\ngini = 0.76\nsamples = 10\nvalue = [0, 0, 0, 1, 3, 0, 0, 0, 3, 0, 2, 1]\nclass = Platform", fillcolor="#ffffff"] ;
510 -> 514 ;
515 [label="gini = 0.5\nsamples = 2\nvalue = [0, 0, 0, 0, 0, 0, 0, 0, 0, 0, 1, 1]\nclass = Sports", fillcolor="#ffffff"] ;
514 -> 515 ;
516 [label="NA_Sales <= 0.055\ngini = 0.688\nsamples = 8\nvalue = [0, 0, 0, 1, 3, 0, 0, 0, 3, 0, 1, 0]\nclass = Platform", fillcolor="#ffffff"] ;
514 -> 516 ;
517 [label="Year <= 2000.5\ngini = 0.64\nsamples = 5\nvalue = [0, 0, 0, 1, 2, 0, 0, 0, 2, 0, 0, 0]\nclass = Platform", fillcolor="#ffffff"] ;
516 -> 517 ;
518 [label="gini = 0.5\nsamples = 2\nvalue = [0, 0, 0, 0, 1, 0, 0, 0, 1, 0, 0, 0]\nclass = Platform", fillcolor="#ffffff"] ;
517 -> 518 ;
519 [label="gini = 0.667\nsamples = 3\nvalue = [0, 0, 0, 1, 1, 0, 0, 0, 1, 0, 0, 0]\nclass = Misc", fillcolor="#ffffff"] ;
517 -> 519 ;
520 [label="gini = 0.667\nsamples = 3\nvalue = [0, 0, 0, 0, 1, 0, 0, 0, 1, 0, 1, 0]\nclass = Platform", fillcolor="#ffffff"] ;
516 -> 520 ;
521 [label="Other_Sales <= 0.005\ngini = 0.868\nsamples = 163\nvalue = [20, 8, 7, 6, 16, 8, 26, 8, 12, 6, 41, 5]\nclass = Sports", fillcolor="#fce9f4"] ;
325 -> 521 ;
522 [label="Global_Sales <= 0.025\ngini = 0.86\nsamples = 140\nvalue = [16, 6, 6, 6, 16, 7, 21, 6, 11, 3, 38, 4]\nclass = Sports", fillcolor="#fbe3f1"] ;
521 -> 522 ;
523 [label="NA_Sales <= 0.015\ngini = 0.837\nsamples = 17\nvalue = [0, 1, 0, 1, 2, 0, 5, 2, 1, 1, 3, 1]\nclass = Racing", fillcolor="#e3f1fb"] ;
522 -> 523 ;
524 [label="gini = 0.82\nsamples = 10\nvalue = [0, 1, 0, 1, 1, 0, 3, 0, 0, 1, 2, 1]\nclass = Racing", fillcolor="#e6f3fc"] ;
523 -> 524 ;
525 [label="gini = 0.776\nsamples = 7\nvalue = [0, 0, 0, 0, 1, 0, 2, 2, 1, 0, 1, 0]\nclass = Racing", fillcolor="#ffffff"] ;
523 -> 525 ;
526 [label="NA_Sales <= 0.015\ngini = 0.855\nsamples = 123\nvalue = [16, 5, 6, 5, 14, 7, 16, 4, 10, 2, 35, 3]\nclass = Sports", fillcolor="#fadcee"] ;
522 -> 526 ;
527 [label="gini = 0.5\nsamples = 2\nvalue = [0, 0, 0, 0, 0, 0, 0, 0, 1, 0, 0, 1]\nclass = Shooter", fillcolor="#ffffff"] ;
526 -> 527 ;
528 [label="Global_Sales <= 0.045\ngini = 0.852\nsamples = 121\nvalue = [16, 5, 6, 5, 14, 7, 16, 4, 9, 2, 35, 2]\nclass = Sports", fillcolor="#fadbed"] ;
526 -> 528 ;
529 [label="NA_Sales <= 0.025\ngini = 0.818\nsamples = 37\nvalue = [6, 1, 0, 1, 6, 1, 4, 1, 6, 0, 11, 0]\nclass = Sports", fillcolor="#fbdfef"] ;
528 -> 529 ;
530 [label="gini = 0.83\nsamples = 17\nvalue = [3, 1, 0, 0, 4, 1, 2, 1, 1, 0, 4, 0]\nclass = Platform", fillcolor="#ffffff"] ;
529 -> 530 ;
531 [label="Global_Sales <= 0.035\ngini = 0.77\nsamples = 20\nvalue = [3, 0, 0, 1, 2, 0, 2, 0, 5, 0, 7, 0]\nclass = Sports", fillcolor="#fce5f2"] ;
529 -> 531 ;
532 [label="gini = 0.0\nsamples = 2\nvalue = [0, 0, 0, 0, 0, 0, 0, 0, 0, 0, 2, 0]\nclass = Sports", fillcolor="#e5399d"] ;
531 -> 532 ;
533 [label="gini = 0.79\nsamples = 18\nvalue = [3, 0, 0, 1, 2, 0, 2, 0, 5, 0, 5, 0]\nclass = Shooter", fillcolor="#ffffff"] ;
531 -> 533 ;
534 [label="NA_Sales <= 0.035\ngini = 0.856\nsamples = 84\nvalue = [10, 4, 6, 4, 8, 6, 12, 3, 3, 2, 24, 2]\nclass = Sports", fillcolor="#fbdeef"] ;
528 -> 534 ;
535 [label="Global_Sales <= 0.055\ngini = 0.864\nsamples = 9\nvalue = [1, 0, 1, 1, 0, 1, 1, 0, 1, 1, 2, 0]\nclass = Sports", fillcolor="#fce6f3"] ;
534 -> 535 ;
536 [label="gini = 0.857\nsamples = 7\nvalue = [1, 0, 1, 1, 0, 1, 1, 0, 1, 0, 1, 0]\nclass = Action", fillcolor="#ffffff"] ;
535 -> 536 ;
537 [label="gini = 0.5\nsamples = 2\nvalue = [0, 0, 0, 0, 0, 0, 0, 0, 0, 1, 1, 0]\nclass = Simulation", fillcolor="#ffffff"] ;
535 -> 537 ;
538 [label="EU_Sales <= 0.015\ngini = 0.85\nsamples = 75\nvalue = [9, 4, 5, 3, 8, 5, 11, 3, 2, 1, 22, 2]\nclass = Sports", fillcolor="#fbddee"] ;
534 -> 538 ;
539 [label="NA_Sales <= 0.045\ngini = 0.806\nsamples = 38\nvalue = [4, 2, 1, 1, 4, 2, 6, 2, 1, 0, 14, 1]\nclass = Sports", fillcolor="#f8cee6"] ;
538 -> 539 ;
540 [label="Global_Sales <= 0.055\ngini = 0.85\nsamples = 27\nvalue = [3, 1, 1, 1, 4, 1, 5, 2, 1, 0, 7, 1]\nclass = Sports", fillcolor="#fdedf6"] ;
539 -> 540 ;
541 [label="gini = 0.825\nsamples = 19\nvalue = [1, 0, 1, 1, 3, 1, 3, 2, 0, 0, 6, 1]\nclass = Sports", fillcolor="#fadaed"] ;
540 -> 541 ;
542 [label="gini = 0.812\nsamples = 8\nvalue = [2, 1, 0, 0, 1, 0, 2, 0, 1, 0, 1, 0]\nclass = Action", fillcolor="#ffffff"] ;
540 -> 542 ;
543 [label="Global_Sales <= 0.065\ngini = 0.562\nsamples = 11\nvalue = [1, 1, 0, 0, 0, 1, 1, 0, 0, 0, 7, 0]\nclass = Sports", fillcolor="#ef88c4"] ;
539 -> 543 ;
544 [label="gini = 0.562\nsamples = 8\nvalue = [0, 1, 0, 0, 0, 1, 1, 0, 0, 0, 5, 0]\nclass = Sports", fillcolor="#f08ec7"] ;
543 -> 544 ;
545 [label="gini = 0.444\nsamples = 3\nvalue = [1, 0, 0, 0, 0, 0, 0, 0, 0, 0, 2, 0]\nclass = Sports", fillcolor="#f29cce"] ;
543 -> 545 ;
546 [label="NA_Sales <= 0.055\ngini = 0.878\nsamples = 37\nvalue = [5, 2, 4, 2, 4, 3, 5, 1, 1, 1, 8, 1]\nclass = Sports", fillcolor="#fdecf6"] ;
538 -> 546 ;
547 [label="Global_Sales <= 0.065\ngini = 0.885\nsamples = 20\nvalue = [3, 1, 2, 1, 2, 2, 4, 0, 1, 1, 2, 1]\nclass = Racing", fillcolor="#f3f9fd"] ;
546 -> 547 ;
548 [label="NA_Sales <= 0.045\ngini = 0.833\nsamples = 6\nvalue = [0, 1, 1, 1, 0, 1, 0, 0, 0, 1, 1, 0]\nclass = Adventure", fillcolor="#ffffff"] ;
547 -> 548 ;
549 [label="gini = 0.75\nsamples = 4\nvalue = [0, 1, 1, 0, 0, 1, 0, 0, 0, 0, 1, 0]\nclass = Adventure", fillcolor="#ffffff"] ;
548 -> 549 ;
550 [label="gini = 0.5\nsamples = 2\nvalue = [0, 0, 0, 1, 0, 0, 0, 0, 0, 1, 0, 0]\nclass = Misc", fillcolor="#ffffff"] ;
548 -> 550 ;
551 [label="Global_Sales <= 0.075\ngini = 0.827\nsamples = 14\nvalue = [3, 0, 1, 0, 2, 1, 4, 0, 1, 0, 1, 1]\nclass = Racing", fillcolor="#edf6fd"] ;
547 -> 551 ;
552 [label="gini = 0.819\nsamples = 12\nvalue = [3, 0, 1, 0, 2, 1, 3, 0, 0, 0, 1, 1]\nclass = Action", fillcolor="#ffffff"] ;
551 -> 552 ;
553 [label="gini = 0.5\nsamples = 2\nvalue = [0, 0, 0, 0, 0, 0, 1, 0, 1, 0, 0, 0]\nclass = Racing", fillcolor="#ffffff"] ;
551 -> 553 ;
554 [label="gini = 0.817\nsamples = 17\nvalue = [2, 1, 2, 1, 2, 1, 1, 1, 0, 0, 6, 0]\nclass = Sports", fillcolor="#f8cae5"] ;
546 -> 554 ;
555 [label="Global_Sales <= 0.055\ngini = 0.866\nsamples = 23\nvalue = [4, 2, 1, 0, 0, 1, 5, 2, 1, 3, 3, 1]\nclass = Racing", fillcolor="#f5fafe"] ;
521 -> 555 ;
556 [label="NA_Sales <= 0.015\ngini = 0.735\nsamples = 7\nvalue = [0, 1, 0, 0, 0, 1, 3, 1, 0, 1, 0, 0]\nclass = Racing", fillcolor="#bddef6"] ;
555 -> 556 ;
557 [label="gini = 0.0\nsamples = 1\nvalue = [0, 0, 0, 0, 0, 0, 0, 0, 0, 1, 0, 0]\nclass = Simulation", fillcolor="#d739e5"] ;
556 -> 557 ;
558 [label="NA_Sales <= 0.025\ngini = 0.667\nsamples = 6\nvalue = [0, 1, 0, 0, 0, 1, 3, 1, 0, 0, 0, 0]\nclass = Racing", fillcolor="#b0d8f5"] ;
556 -> 558 ;
559 [label="gini = 0.0\nsamples = 1\nvalue = [0, 0, 0, 0, 0, 0, 1, 0, 0, 0, 0, 0]\nclass = Racing", fillcolor="#399de5"] ;
558 -> 559 ;
560 [label="gini = 0.72\nsamples = 5\nvalue = [0, 1, 0, 0, 0, 1, 2, 1, 0, 0, 0, 0]\nclass = Racing", fillcolor="#cee6f8"] ;
558 -> 560 ;
561 [label="Global_Sales <= 0.075\ngini = 0.852\nsamples = 16\nvalue = [4, 1, 1, 0, 0, 0, 2, 1, 1, 2, 3, 1]\nclass = Action", fillcolor="#fdf5f0"] ;
555 -> 561 ;
562 [label="NA_Sales <= 0.035\ngini = 0.793\nsamples = 11\nvalue = [4, 1, 1, 0, 0, 0, 1, 1, 0, 1, 2, 0]\nclass = Action", fillcolor="#f9e3d3"] ;
561 -> 562 ;
563 [label="EU_Sales <= 0.025\ngini = 0.75\nsamples = 8\nvalue = [3, 1, 1, 0, 0, 0, 1, 0, 0, 0, 2, 0]\nclass = Action", fillcolor="#fbeade"] ;
562 -> 563 ;
564 [label="gini = 0.625\nsamples = 4\nvalue = [2, 0, 0, 0, 0, 0, 1, 0, 0, 0, 1, 0]\nclass = Action", fillcolor="#f6d5bd"] ;
563 -> 564 ;
565 [label="gini = 0.75\nsamples = 4\nvalue = [1, 1, 1, 0, 0, 0, 0, 0, 0, 0, 1, 0]\nclass = Action", fillcolor="#ffffff"] ;
563 -> 565 ;
566 [label="gini = 0.667\nsamples = 3\nvalue = [1, 0, 0, 0, 0, 0, 0, 1, 0, 1, 0, 0]\nclass = Action", fillcolor="#ffffff"] ;
562 -> 566 ;
567 [label="gini = 0.8\nsamples = 5\nvalue = [0, 0, 0, 0, 0, 0, 1, 0, 1, 1, 1, 1]\nclass = Racing", fillcolor="#ffffff"] ;
561 -> 567 ;
568 [label="NA_Sales <= 0.035\ngini = 0.891\nsamples = 103\nvalue = [9, 6, 6, 4, 3, 3, 19, 8, 12, 7, 10, 16]\nclass = Racing", fillcolor="#f8fcfe"] ;
304 -> 568 ;
569 [label="NA_Sales <= 0.015\ngini = 0.444\nsamples = 6\nvalue = [0, 0, 0, 0, 0, 0, 0, 2, 0, 0, 0, 4]\nclass = Strategy", fillcolor="#f29ca3"] ;
568 -> 569 ;
570 [label="Global_Sales <= 0.115\ngini = 0.444\nsamples = 3\nvalue = [0, 0, 0, 0, 0, 0, 0, 2, 0, 0, 0, 1]\nclass = Role-Playing", fillcolor="#9ca3f2"] ;
569 -> 570 ;
571 [label="gini = 0.0\nsamples = 1\nvalue = [0, 0, 0, 0, 0, 0, 0, 0, 0, 0, 0, 1]\nclass = Strategy", fillcolor="#e53947"] ;
570 -> 571 ;
572 [label="gini = 0.0\nsamples = 2\nvalue = [0, 0, 0, 0, 0, 0, 0, 2, 0, 0, 0, 0]\nclass = Role-Playing", fillcolor="#3947e5"] ;
570 -> 572 ;
573 [label="gini = 0.0\nsamples = 3\nvalue = [0, 0, 0, 0, 0, 0, 0, 0, 0, 0, 0, 3]\nclass = Strategy", fillcolor="#e53947"] ;
569 -> 573 ;
574 [label="Year <= 1997.5\ngini = 0.891\nsamples = 97\nvalue = [9, 6, 6, 4, 3, 3, 19, 6, 12, 7, 10, 12]\nclass = Racing", fillcolor="#eff7fd"] ;
568 -> 574 ;
575 [label="Global_Sales <= 0.115\ngini = 0.81\nsamples = 20\nvalue = [2, 1, 0, 0, 0, 0, 4, 0, 6, 3, 3, 1]\nclass = Shooter", fillcolor="#efe6fc"] ;
574 -> 575 ;
576 [label="Global_Sales <= 0.095\ngini = 0.79\nsamples = 18\nvalue = [2, 1, 0, 0, 0, 0, 4, 0, 6, 3, 1, 1]\nclass = Shooter", fillcolor="#ede3fb"] ;
575 -> 576 ;
577 [label="Year <= 1996.5\ngini = 0.781\nsamples = 8\nvalue = [2, 0, 0, 0, 0, 0, 2, 0, 1, 2, 0, 1]\nclass = Action", fillcolor="#ffffff"] ;
576 -> 577 ;
578 [label="EU_Sales <= 0.035\ngini = 0.667\nsamples = 3\nvalue = [1, 0, 0, 0, 0, 0, 0, 0, 0, 1, 0, 1]\nclass = Action", fillcolor="#ffffff"] ;
577 -> 578 ;
579 [label="gini = 0.5\nsamples = 2\nvalue = [1, 0, 0, 0, 0, 0, 0, 0, 0, 0, 0, 1]\nclass = Action", fillcolor="#ffffff"] ;
578 -> 579 ;
580 [label="gini = 0.0\nsamples = 1\nvalue = [0, 0, 0, 0, 0, 0, 0, 0, 0, 1, 0, 0]\nclass = Simulation", fillcolor="#d739e5"] ;
578 -> 580 ;
581 [label="EU_Sales <= 0.035\ngini = 0.72\nsamples = 5\nvalue = [1, 0, 0, 0, 0, 0, 2, 0, 1, 1, 0, 0]\nclass = Racing", fillcolor="#cee6f8"] ;
577 -> 581 ;
582 [label="gini = 0.625\nsamples = 4\nvalue = [0, 0, 0, 0, 0, 0, 2, 0, 1, 1, 0, 0]\nclass = Racing", fillcolor="#bddef6"] ;
581 -> 582 ;
583 [label="gini = 0.0\nsamples = 1\nvalue = [1, 0, 0, 0, 0, 0, 0, 0, 0, 0, 0, 0]\nclass = Action", fillcolor="#e58139"] ;
581 -> 583 ;
584 [label="Global_Sales <= 0.105\ngini = 0.68\nsamples = 10\nvalue = [0, 1, 0, 0, 0, 0, 2, 0, 5, 1, 1, 0]\nclass = Shooter", fillcolor="#d0b5f5"] ;
576 -> 584 ;
585 [label="NA_Sales <= 0.055\ngini = 0.778\nsamples = 6\nvalue = [0, 1, 0, 0, 0, 0, 1, 0, 2, 1, 1, 0]\nclass = Shooter", fillcolor="#e6d7fa"] ;
584 -> 585 ;
586 [label="Year <= 1996.5\ngini = 0.444\nsamples = 3\nvalue = [0, 1, 0, 0, 0, 0, 0, 0, 2, 0, 0, 0]\nclass = Shooter", fillcolor="#c09cf2"] ;
585 -> 586 ;
587 [label="gini = 0.0\nsamples = 1\nvalue = [0, 0, 0, 0, 0, 0, 0, 0, 1, 0, 0, 0]\nclass = Shooter", fillcolor="#8139e5"] ;
586 -> 587 ;
588 [label="gini = 0.5\nsamples = 2\nvalue = [0, 1, 0, 0, 0, 0, 0, 0, 1, 0, 0, 0]\nclass = Adventure", fillcolor="#ffffff"] ;
586 -> 588 ;
589 [label="Year <= 1996.5\ngini = 0.667\nsamples = 3\nvalue = [0, 0, 0, 0, 0, 0, 1, 0, 0, 1, 1, 0]\nclass = Racing", fillcolor="#ffffff"] ;
585 -> 589 ;
590 [label="gini = 0.0\nsamples = 1\nvalue = [0, 0, 0, 0, 0, 0, 0, 0, 0, 0, 1, 0]\nclass = Sports", fillcolor="#e5399d"] ;
589 -> 590 ;
591 [label="gini = 0.5\nsamples = 2\nvalue = [0, 0, 0, 0, 0, 0, 1, 0, 0, 1, 0, 0]\nclass = Racing", fillcolor="#ffffff"] ;
589 -> 591 ;
592 [label="gini = 0.375\nsamples = 4\nvalue = [0, 0, 0, 0, 0, 0, 1, 0, 3, 0, 0, 0]\nclass = Shooter", fillcolor="#ab7bee"] ;
584 -> 592 ;
593 [label="gini = 0.0\nsamples = 2\nvalue = [0, 0, 0, 0, 0, 0, 0, 0, 0, 0, 2, 0]\nclass = Sports", fillcolor="#e5399d"] ;
575 -> 593 ;
594 [label="Global_Sales <= 0.125\ngini = 0.894\nsamples = 77\nvalue = [7, 5, 6, 4, 3, 3, 15, 6, 6, 4, 7, 11]\nclass = Racing", fillcolor="#f3f9fd"] ;
574 -> 594 ;
595 [label="Year <= 2001.5\ngini = 0.898\nsamples = 69\nvalue = [6, 5, 6, 4, 2, 3, 11, 5, 6, 3, 7, 11]\nclass = Racing", fillcolor="#ffffff"] ;
594 -> 595 ;
596 [label="Global_Sales <= 0.095\ngini = 0.892\nsamples = 54\nvalue = [5, 4, 6, 4, 1, 3, 8, 5, 2, 2, 4, 10]\nclass = Strategy", fillcolor="#fef6f7"] ;
595 -> 596 ;
597 [label="NA_Sales <= 0.045\ngini = 0.844\nsamples = 17\nvalue = [2, 0, 0, 2, 1, 1, 1, 2, 2, 0, 1, 5]\nclass = Strategy", fillcolor="#fad7da"] ;
596 -> 597 ;
598 [label="gini = 0.625\nsamples = 4\nvalue = [1, 0, 0, 0, 0, 0, 0, 2, 0, 0, 0, 1]\nclass = Role-Playing", fillcolor="#bdc2f6"] ;
597 -> 598 ;
599 [label="EU_Sales <= 0.035\ngini = 0.828\nsamples = 13\nvalue = [1, 0, 0, 2, 1, 1, 1, 0, 2, 0, 1, 4]\nclass = Strategy", fillcolor="#fadbde"] ;
597 -> 599 ;
600 [label="NA_Sales <= 0.055\ngini = 0.815\nsamples = 9\nvalue = [0, 0, 0, 2, 1, 1, 1, 0, 2, 0, 0, 2]\nclass = Misc", fillcolor="#ffffff"] ;
599 -> 600 ;
601 [label="Year <= 1999.0\ngini = 0.812\nsamples = 8\nvalue = [0, 0, 0, 2, 1, 1, 1, 0, 2, 0, 0, 1]\nclass = Misc", fillcolor="#ffffff"] ;
600 -> 601 ;
602 [label="gini = 0.667\nsamples = 3\nvalue = [0, 0, 0, 0, 0, 1, 0, 0, 1, 0, 0, 1]\nclass = Puzzle", fillcolor="#ffffff"] ;
601 -> 602 ;
603 [label="Year <= 2000.5\ngini = 0.72\nsamples = 5\nvalue = [0, 0, 0, 2, 1, 0, 1, 0, 1, 0, 0, 0]\nclass = Misc", fillcolor="#d1f8ce"] ;
601 -> 603 ;
604 [label="gini = 0.667\nsamples = 3\nvalue = [0, 0, 0, 1, 1, 0, 1, 0, 0, 0, 0, 0]\nclass = Misc", fillcolor="#ffffff"] ;
603 -> 604 ;
605 [label="gini = 0.5\nsamples = 2\nvalue = [0, 0, 0, 1, 0, 0, 0, 0, 1, 0, 0, 0]\nclass = Misc", fillcolor="#ffffff"] ;
603 -> 605 ;
606 [label="gini = 0.0\nsamples = 1\nvalue = [0, 0, 0, 0, 0, 0, 0, 0, 0, 0, 0, 1]\nclass = Strategy", fillcolor="#e53947"] ;
600 -> 606 ;
607 [label="Year <= 1999.0\ngini = 0.625\nsamples = 4\nvalue = [1, 0, 0, 0, 0, 0, 0, 0, 0, 0, 1, 2]\nclass = Strategy", fillcolor="#f6bdc2"] ;
599 -> 607 ;
608 [label="gini = 0.0\nsamples = 1\nvalue = [0, 0, 0, 0, 0, 0, 0, 0, 0, 0, 0, 1]\nclass = Strategy", fillcolor="#e53947"] ;
607 -> 608 ;
609 [label="Year <= 2000.5\ngini = 0.667\nsamples = 3\nvalue = [1, 0, 0, 0, 0, 0, 0, 0, 0, 0, 1, 1]\nclass = Action", fillcolor="#ffffff"] ;
607 -> 609 ;
610 [label="gini = 0.5\nsamples = 2\nvalue = [1, 0, 0, 0, 0, 0, 0, 0, 0, 0, 1, 0]\nclass = Action", fillcolor="#ffffff"] ;
609 -> 610 ;
611 [label="gini = 0.0\nsamples = 1\nvalue = [0, 0, 0, 0, 0, 0, 0, 0, 0, 0, 0, 1]\nclass = Strategy", fillcolor="#e53947"] ;
609 -> 611 ;
612 [label="Year <= 2000.5\ngini = 0.879\nsamples = 37\nvalue = [3, 4, 6, 2, 0, 2, 7, 3, 0, 2, 3, 5]\nclass = Racing", fillcolor="#f9fcfe"] ;
596 -> 612 ;
613 [label="Global_Sales <= 0.115\ngini = 0.872\nsamples = 27\nvalue = [2, 1, 5, 2, 0, 2, 4, 1, 0, 2, 3, 5]\nclass = Fighting", fillcolor="#ffffff"] ;
612 -> 613 ;
614 [label="NA_Sales <= 0.055\ngini = 0.864\nsamples = 26\nvalue = [2, 1, 5, 2, 0, 2, 4, 0, 0, 2, 3, 5]\nclass = Fighting", fillcolor="#ffffff"] ;
613 -> 614 ;
615 [label="gini = 0.5\nsamples = 2\nvalue = [0, 0, 0, 0, 0, 1, 0, 0, 0, 1, 0, 0]\nclass = Puzzle", fillcolor="#ffffff"] ;
614 -> 615 ;
616 [label="Year <= 1998.5\ngini = 0.851\nsamples = 24\nvalue = [2, 1, 5, 2, 0, 1, 4, 0, 0, 1, 3, 5]\nclass = Fighting", fillcolor="#ffffff"] ;
614 -> 616 ;
617 [label="Global_Sales <= 0.105\ngini = 0.667\nsamples = 3\nvalue = [1, 1, 1, 0, 0, 0, 0, 0, 0, 0, 0, 0]\nclass = Action", fillcolor="#ffffff"] ;
616 -> 617 ;
618 [label="gini = 0.0\nsamples = 1\nvalue = [0, 0, 1, 0, 0, 0, 0, 0, 0, 0, 0, 0]\nclass = Fighting", fillcolor="#9de539"] ;
617 -> 618 ;
619 [label="gini = 0.5\nsamples = 2\nvalue = [1, 1, 0, 0, 0, 0, 0, 0, 0, 0, 0, 0]\nclass = Action", fillcolor="#ffffff"] ;
617 -> 619 ;
620 [label="Global_Sales <= 0.105\ngini = 0.834\nsamples = 21\nvalue = [1, 0, 4, 2, 0, 1, 4, 0, 0, 1, 3, 5]\nclass = Strategy", fillcolor="#fdf3f4"] ;
616 -> 620 ;
621 [label="Year <= 1999.5\ngini = 0.778\nsamples = 6\nvalue = [1, 0, 1, 1, 0, 0, 0, 0, 0, 1, 0, 2]\nclass = Strategy", fillcolor="#fad7da"] ;
620 -> 621 ;
622 [label="gini = 0.72\nsamples = 5\nvalue = [1, 0, 1, 0, 0, 0, 0, 0, 0, 1, 0, 2]\nclass = Strategy", fillcolor="#f8ced1"] ;
621 -> 622 ;
623 [label="gini = 0.0\nsamples = 1\nvalue = [0, 0, 0, 1, 0, 0, 0, 0, 0, 0, 0, 0]\nclass = Misc", fillcolor="#47e539"] ;
621 -> 623 ;
624 [label="Year <= 1999.5\ngini = 0.8\nsamples = 15\nvalue = [0, 0, 3, 1, 0, 1, 4, 0, 0, 0, 3, 3]\nclass = Racing", fillcolor="#eff7fd"] ;
620 -> 624 ;
625 [label="gini = 0.82\nsamples = 10\nvalue = [0, 0, 2, 1, 0, 1, 2, 0, 0, 0, 2, 2]\nclass = Fighting", fillcolor="#ffffff"] ;
624 -> 625 ;
626 [label="gini = 0.72\nsamples = 5\nvalue = [0, 0, 1, 0, 0, 0, 2, 0, 0, 0, 1, 1]\nclass = Racing", fillcolor="#cee6f8"] ;
624 -> 626 ;
627 [label="gini = 0.0\nsamples = 1\nvalue = [0, 0, 0, 0, 0, 0, 0, 1, 0, 0, 0, 0]\nclass = Role-Playing", fillcolor="#3947e5"] ;
613 -> 627 ;
628 [label="Global_Sales <= 0.105\ngini = 0.76\nsamples = 10\nvalue = [1, 3, 1, 0, 0, 0, 3, 2, 0, 0, 0, 0]\nclass = Adventure", fillcolor="#ffffff"] ;
612 -> 628 ;
629 [label="NA_Sales <= 0.055\ngini = 0.694\nsamples = 7\nvalue = [1, 1, 0, 0, 0, 0, 3, 2, 0, 0, 0, 0]\nclass = Racing", fillcolor="#d7ebfa"] ;
628 -> 629 ;
630 [label="gini = 0.64\nsamples = 5\nvalue = [0, 1, 0, 0, 0, 0, 2, 2, 0, 0, 0, 0]\nclass = Racing", fillcolor="#ffffff"] ;
629 -> 630 ;
631 [label="gini = 0.5\nsamples = 2\nvalue = [1, 0, 0, 0, 0, 0, 1, 0, 0, 0, 0, 0]\nclass = Action", fillcolor="#ffffff"] ;
629 -> 631 ;
632 [label="Other_Sales <= 0.015\ngini = 0.444\nsamples = 3\nvalue = [0, 2, 1, 0, 0, 0, 0, 0, 0, 0, 0, 0]\nclass = Adventure", fillcolor="#f2eb9c"] ;
628 -> 632 ;
633 [label="gini = 0.0\nsamples = 2\nvalue = [0, 2, 0, 0, 0, 0, 0, 0, 0, 0, 0, 0]\nclass = Adventure", fillcolor="#e5d739"] ;
632 -> 633 ;
634 [label="gini = 0.0\nsamples = 1\nvalue = [0, 0, 1, 0, 0, 0, 0, 0, 0, 0, 0, 0]\nclass = Fighting", fillcolor="#9de539"] ;
632 -> 634 ;
635 [label="NA_Sales <= 0.055\ngini = 0.827\nsamples = 15\nvalue = [1, 1, 0, 0, 1, 0, 3, 0, 4, 1, 3, 1]\nclass = Shooter", fillcolor="#f5effd"] ;
595 -> 635 ;
636 [label="Global_Sales <= 0.095\ngini = 0.778\nsamples = 12\nvalue = [1, 0, 0, 0, 0, 0, 3, 0, 4, 1, 2, 1]\nclass = Shooter", fillcolor="#f1e9fc"] ;
635 -> 636 ;
637 [label="EU_Sales <= 0.035\ngini = 0.625\nsamples = 4\nvalue = [1, 0, 0, 0, 0, 0, 2, 0, 1, 0, 0, 0]\nclass = Racing", fillcolor="#bddef6"] ;
636 -> 637 ;
638 [label="gini = 0.667\nsamples = 3\nvalue = [1, 0, 0, 0, 0, 0, 1, 0, 1, 0, 0, 0]\nclass = Action", fillcolor="#ffffff"] ;
637 -> 638 ;
639 [label="gini = 0.0\nsamples = 1\nvalue = [0, 0, 0, 0, 0, 0, 1, 0, 0, 0, 0, 0]\nclass = Racing", fillcolor="#399de5"] ;
637 -> 639 ;
640 [label="Global_Sales <= 0.105\ngini = 0.75\nsamples = 8\nvalue = [0, 0, 0, 0, 0, 0, 1, 0, 3, 1, 2, 1]\nclass = Shooter", fillcolor="#eadefb"] ;
636 -> 640 ;
641 [label="gini = 0.667\nsamples = 3\nvalue = [0, 0, 0, 0, 0, 0, 0, 0, 1, 1, 1, 0]\nclass = Shooter", fillcolor="#ffffff"] ;
640 -> 641 ;
642 [label="gini = 0.72\nsamples = 5\nvalue = [0, 0, 0, 0, 0, 0, 1, 0, 2, 0, 1, 1]\nclass = Shooter", fillcolor="#e0cef8"] ;
640 -> 642 ;
643 [label="gini = 0.667\nsamples = 3\nvalue = [0, 1, 0, 0, 1, 0, 0, 0, 0, 0, 1, 0]\nclass = Adventure", fillcolor="#ffffff"] ;
635 -> 643 ;
644 [label="Year <= 2001.5\ngini = 0.688\nsamples = 8\nvalue = [1, 0, 0, 0, 1, 0, 4, 1, 0, 1, 0, 0]\nclass = Racing", fillcolor="#aad5f4"] ;
594 -> 644 ;
645 [label="Other_Sales <= 0.015\ngini = 0.72\nsamples = 5\nvalue = [1, 0, 0, 0, 1, 0, 2, 0, 0, 1, 0, 0]\nclass = Racing", fillcolor="#cee6f8"] ;
644 -> 645 ;
646 [label="gini = 0.0\nsamples = 1\nvalue = [0, 0, 0, 0, 0, 0, 1, 0, 0, 0, 0, 0]\nclass = Racing", fillcolor="#399de5"] ;
645 -> 646 ;
647 [label="gini = 0.75\nsamples = 4\nvalue = [1, 0, 0, 0, 1, 0, 1, 0, 0, 1, 0, 0]\nclass = Action", fillcolor="#ffffff"] ;
645 -> 647 ;
648 [label="gini = 0.444\nsamples = 3\nvalue = [0, 0, 0, 0, 0, 0, 2, 1, 0, 0, 0, 0]\nclass = Racing", fillcolor="#9ccef2"] ;
644 -> 648 ;
649 [label="EU_Sales <= 0.715\ngini = 0.862\nsamples = 1372\nvalue = [197, 47, 91, 89, 116, 28, 226, 42, 129, 33, 343\n31]\nclass = Sports", fillcolor="#fcebf5"] ;
259 -> 649 ;
650 [label="Global_Sales <= 0.855\ngini = 0.858\nsamples = 1334\nvalue = [193, 44, 89, 86, 109, 28, 224, 42, 123, 28, 342\n26]\nclass = Sports", fillcolor="#fceaf5"] ;
649 -> 650 ;
651 [label="EU_Sales <= 0.015\ngini = 0.861\nsamples = 1125\nvalue = [176, 42, 72, 74, 94, 24, 187, 36, 104, 22, 274\n20]\nclass = Sports", fillcolor="#fdedf6"] ;
650 -> 651 ;
652 [label="Year <= 1985.5\ngini = 0.551\nsamples = 14\nvalue = [2, 0, 0, 0, 0, 1, 1, 0, 1, 0, 9, 0]\nclass = Sports", fillcolor="#f08cc6"] ;
651 -> 652 ;
653 [label="gini = 0.0\nsamples = 1\nvalue = [0, 0, 0, 0, 0, 0, 1, 0, 0, 0, 0, 0]\nclass = Racing", fillcolor="#399de5"] ;
652 -> 653 ;
654 [label="Global_Sales <= 0.4\ngini = 0.485\nsamples = 13\nvalue = [2, 0, 0, 0, 0, 1, 0, 0, 1, 0, 9, 0]\nclass = Sports", fillcolor="#ee81c1"] ;
652 -> 654 ;
655 [label="Year <= 1993.5\ngini = 0.417\nsamples = 12\nvalue = [1, 0, 0, 0, 0, 1, 0, 0, 1, 0, 9, 0]\nclass = Sports", fillcolor="#ec6fb8"] ;
654 -> 655 ;
656 [label="Global_Sales <= 0.115\ngini = 0.72\nsamples = 5\nvalue = [1, 0, 0, 0, 0, 1, 0, 0, 1, 0, 2, 0]\nclass = Sports", fillcolor="#f8cee6"] ;
655 -> 656 ;
657 [label="gini = 0.0\nsamples = 2\nvalue = [0, 0, 0, 0, 0, 0, 0, 0, 0, 0, 2, 0]\nclass = Sports", fillcolor="#e5399d"] ;
656 -> 657 ;
658 [label="NA_Sales <= 0.18\ngini = 0.667\nsamples = 3\nvalue = [1, 0, 0, 0, 0, 1, 0, 0, 1, 0, 0, 0]\nclass = Action", fillcolor="#ffffff"] ;
656 -> 658 ;
659 [label="gini = 0.0\nsamples = 1\nvalue = [0, 0, 0, 0, 0, 1, 0, 0, 0, 0, 0, 0]\nclass = Puzzle", fillcolor="#39e5d7"] ;
658 -> 659 ;
660 [label="Global_Sales <= 0.25\ngini = 0.5\nsamples = 2\nvalue = [1, 0, 0, 0, 0, 0, 0, 0, 1, 0, 0, 0]\nclass = Action", fillcolor="#ffffff"] ;
658 -> 660 ;
661 [label="gini = 0.0\nsamples = 1\nvalue = [1, 0, 0, 0, 0, 0, 0, 0, 0, 0, 0, 0]\nclass = Action", fillcolor="#e58139"] ;
660 -> 661 ;
662 [label="gini = 0.0\nsamples = 1\nvalue = [0, 0, 0, 0, 0, 0, 0, 0, 1, 0, 0, 0]\nclass = Shooter", fillcolor="#8139e5"] ;
660 -> 662 ;
663 [label="gini = 0.0\nsamples = 7\nvalue = [0, 0, 0, 0, 0, 0, 0, 0, 0, 0, 7, 0]\nclass = Sports", fillcolor="#e5399d"] ;
655 -> 663 ;
664 [label="gini = 0.0\nsamples = 1\nvalue = [1, 0, 0, 0, 0, 0, 0, 0, 0, 0, 0, 0]\nclass = Action", fillcolor="#e58139"] ;
654 -> 664 ;
665 [label="EU_Sales <= 0.36\ngini = 0.863\nsamples = 1111\nvalue = [174, 42, 72, 74, 94, 23, 186, 36, 103, 22, 265\n20]\nclass = Sports", fillcolor="#fdeef7"] ;
651 -> 665 ;
666 [label="Year <= 1996.5\ngini = 0.863\nsamples = 1107\nvalue = [174, 42, 72, 74, 94, 23, 186, 36, 103, 22, 261\n20]\nclass = Sports", fillcolor="#fdeff7"] ;
665 -> 666 ;
667 [label="NA_Sales <= 0.305\ngini = 0.842\nsamples = 86\nvalue = [12, 3, 5, 5, 2, 3, 6, 2, 12, 5, 27, 4]\nclass = Sports", fillcolor="#fad7eb"] ;
666 -> 667 ;
668 [label="Global_Sales <= 0.515\ngini = 0.822\nsamples = 69\nvalue = [9, 2, 3, 5, 2, 2, 5, 2, 5, 5, 25, 4]\nclass = Sports", fillcolor="#f8cae5"] ;
667 -> 668 ;
669 [label="NA_Sales <= 0.255\ngini = 0.815\nsamples = 67\nvalue = [9, 2, 3, 3, 2, 2, 5, 2, 5, 5, 25, 4]\nclass = Sports", fillcolor="#f8c8e4"] ;
668 -> 669 ;
670 [label="NA_Sales <= 0.175\ngini = 0.836\nsamples = 62\nvalue = [8, 2, 3, 3, 2, 2, 5, 2, 5, 5, 21, 4]\nclass = Sports", fillcolor="#f9cfe7"] ;
669 -> 670 ;
671 [label="NA_Sales <= 0.155\ngini = 0.817\nsamples = 51\nvalue = [5, 2, 3, 1, 2, 2, 4, 1, 5, 4, 19, 3]\nclass = Sports", fillcolor="#f7c3e1"] ;
670 -> 671 ;
